#include"pxview3d.h"
#include<stdio.h>
#include<stdlib.h>
#define _USE_MATH_DEFINES
#include<math.h>
#include<process.h>
#include"intercept_malloc.h"
#include"lodepng.h"//
#include<immintrin.h>
static const char file[]=__FILE__;


	#define C03_USE_FLOAT

#ifdef C03_USE_FLOAT
#define C03_DATATYPE float
#define C03_CVT_COEFF(X) (C03_DATATYPE)(X)
#define C03_CVT_PIXEL(X) (C03_DATATYPE)(((X)+128)/255.*2-1)
#define C03_CVT_PRED(X) (char)((CLAMP(-1, X, 1)+1)/2*255-128)
#else
#define C03_DATATYPE short
#define C03_CVT_COEFF(X) (C03_DATATYPE)((X)*0x4000)
#define C03_CVT_PIXEL(X) ((C03_DATATYPE)(X)<<8)
#define C03_CVT_PRED(X) (char)((X+128)>>8)
#endif

#define C03_REACH 3
#define C03_NNB (2*(C03_REACH+1)*C03_REACH)
#define C03_CIN (4*(C03_REACH+1)*C03_REACH)
static void c03_dense(const C03_DATATYPE *mat, const C03_DATATYPE *vec, const C03_DATATYPE *bias, C03_DATATYPE *res, int mw, int mh)
{
#ifdef C03_USE_FLOAT
#if 0
	for(int ky=0;ky<mh;++ky, mat+=mw)
	{
		__m256d sum=_mm256_setzero_pd();
		int kx;
		for(kx=0;kx<mw-(sizeof(__m256d)/sizeof(C03_DATATYPE)-1);kx+=sizeof(__m256)/sizeof(C03_DATATYPE))
		{
			__m256d ra=_mm256_loadu_pd(mat+kx);
			__m256d rb=_mm256_loadu_pd(vec+kx);
			ra=_mm256_mul_pd(ra, rb);
			sum=_mm256_add_pd(sum, ra);
		}
		__m128d hi=_mm256_extractf128_pd(sum, 1);
		__m128d lo=_mm256_extractf128_pd(sum, 0);
		lo=_mm_add_pd(hi, lo);
		double s2=lo.m128d_f64[0]+lo.m128d_f64[1];
		for(;kx<mw;++kx)
			s2+=mat[kx]*vec[kx];

		s2+=bias[ky];
		//s2=s2<0?s2*0.01:s2;//LeakyReLU
		res[ky]=s2;
	}
#else
	//memset(res, 0, mh*sizeof(float));
	for(int ky=0;ky<mh;++ky, mat+=mw)
	{
		__m256 sum=_mm256_setzero_ps();
		int kx;
		for(kx=0;kx<mw-(sizeof(__m256)/sizeof(C03_DATATYPE)-1);kx+=sizeof(__m256)/sizeof(C03_DATATYPE))
		{
			__m256 ra=_mm256_loadu_ps(mat+kx);
			__m256 rb=_mm256_loadu_ps(vec+kx);
			ra=_mm256_mul_ps(ra, rb);
			sum=_mm256_add_ps(sum, ra);
		}
		__m128 hi=_mm256_extractf128_ps(sum, 1);
		__m128 lo=_mm256_extractf128_ps(sum, 0);
		lo=_mm_add_ps(hi, lo);
		hi=_mm_movehl_ps(hi, lo);
		lo=_mm_add_ps(hi, lo);
		hi=_mm_shuffle_ps(lo, lo, _MM_SHUFFLE(0, 0, 0, 1));
		lo=_mm_add_ss(hi, lo);
		float s2=_mm_cvtss_f32(lo);
		for(;kx<mw;++kx)
			s2+=mat[kx]*vec[kx];
		s2+=bias[ky];
		//s2=s2<0?s2*0.01:s2;//LeakyReLU
		res[ky]=s2;
	}
#endif
#if 0
	int k;
	__m256 sum=_mm256_setzero_ps();
	for(k=0;k<count-7;k+=8)
	{
		__m256 ra=_mm256_loadu_ps(va+k);
		__m256 rb=_mm256_loadu_ps(vb+k);
		ra=_mm256_mul_ps(ra, rb);
		sum=_mm256_add_ps(sum, ra);
	}
	__m128 hi=_mm256_extractf128_ps(sum, 1);
	__m128 lo=_mm256_extractf128_ps(sum, 0);
	lo=_mm_add_ps(hi, lo);
	hi=_mm_movehl_ps(hi, lo);
	lo=_mm_add_ps(hi, lo);
	hi=_mm_shuffle_ps(lo, lo, _MM_SHUFFLE(0, 0, 0, 1));
	lo=_mm_add_ss(hi, lo);
	float s2=_mm_cvtss_f32(lo);
	for(;k<count;++k)
		s2+=va[k]*vb[k];
	return s2;
#endif
#else
#error TODO
#endif
}
static void c03_activation(C03_DATATYPE *vec, int count)
{
	for(int k=0;k<count;++k)
	{
		C03_DATATYPE val=vec[k];
		if(val<0)//LeakyReLU
			val*=0.01f;
		vec[k]=val;
	}
}
void pred_c03(char *src, int iw, int ih, int fwd)
{
	int res=iw*ih;
	char *dst=(char*)malloc((size_t)res<<2);
	if(!dst)
	{
		LOG_ERROR("Allocation error");
		return;
	}
#if 1
	static const double weight01[]=
	{
		  -0.085383899509906769,   0.118390068411827087,  -0.136094152927398682,  -0.151561245322227478,   0.030368980020284653,  -0.109790407121181488,  -0.112390592694282532,   0.017681185156106949,  -0.034899804741144180,   0.125526353716850281,  -0.093470938503742218,   0.056151844561100006,  -0.078147679567337036,  -0.098730660974979401,   0.089048556983470917,  -0.017100425437092781,   0.087147012352943420,  -0.034936301410198212,  -0.116087533533573151,  -0.044706199318170547,  -0.021290479227900505,   0.050434906035661697,   0.086150385439395905,   0.023349676281213760,   0.031740311533212662,  -0.060442496091127396,  -0.104596666991710663,   0.094257295131683350,  -0.072534427046775818,  -0.024137133732438087,   0.049870446324348450,   0.111887060105800629,   0.029084386304020882,  -0.120553560554981232,  -0.072650514543056488,  -0.166243672370910645,  -0.151480972766876221,  -0.123768836259841919,  -0.018935125321149826,  -0.183374628424644470,  -0.202874198555946350,  -0.061107669025659561,   0.051188673824071884,  -0.136303275823593140,  -0.145607233047485352,   0.025814196094870567,   0.050803288817405701,  -0.152526676654815674,
		  -0.071527726948261261,   0.065523825585842133,  -0.059865076094865799,   0.046400289982557297,  -0.133711576461791992,  -0.050455771386623383,   0.118131630122661591,   0.087230928242206573,   0.131875738501548767,   0.043416678905487061,   0.081556148827075958,  -0.094485603272914886,  -0.069874010980129242,   0.055102590471506119,  -0.120514325797557831,   0.075725302100181580,  -0.070086240768432617,  -0.141116380691528320,  -0.055445991456508636,  -0.119016416370868683,   0.038672074675559998,   0.072363339364528656,   0.028751540929079056,  -0.024036537855863571,   0.056025721132755280,  -0.072045236825942993,   0.049701206386089325,  -0.068358190357685089,  -0.107125960290431976,   0.010339006781578064,  -0.075832843780517578,  -0.028757285326719284,   0.073171719908714294,  -0.042389459908008575,  -0.132986009120941162,  -0.140099644660949707,  -0.075206048786640167,  -0.040282137691974640,   0.083268575370311737,   0.054923374205827713,  -0.058886416256427765,  -0.244638919830322266,  -0.116247072815895081,   0.098645165562629700,  -0.074600100517272949,  -0.116877354681491852,  -0.017066322267055511,  -0.084240019321441650,
		  -0.000460180483059958,   0.088042475283145905,  -0.143661141395568848,  -0.049939282238483429,   0.103497743606567383,   0.006299057509750128,  -0.122538551688194275,   0.067048400640487671,   0.078384600579738617,  -0.074274614453315735,  -0.018591793254017830,  -0.101122058928012848,  -0.023696430027484894,   0.108617730438709259,  -0.132320970296859741,  -0.102961286902427673,  -0.091966181993484497,  -0.149186298251152039,  -0.077539250254631042,   0.103994175791740417,   0.009383607655763626,  -0.111287653446197510,   0.088940382003784180,  -0.026342965662479401,  -0.087295055389404297,  -0.034473147243261337,  -0.032307550311088562,  -0.000277756480500102,  -0.030988633632659912,  -0.050812579691410065,  -0.115324303507804871,   0.033828005194664001,  -0.052957274019718170,   0.023988816887140274,  -0.148886874318122864,  -0.145227611064910889,   0.104951038956642151,   0.021466294303536415,  -0.000895963516086340,  -0.029801705852150917,   0.039252858608961105,  -0.042209863662719727,  -0.111893996596336365,   0.057233475148677826,   0.074059784412384033,   0.025607859715819359,  -0.037837732583284378,  -0.137911602854728699,
		  -0.081440590322017670,   0.099579438567161560,   0.133599966764450073,   0.039643697440624237,  -0.075847022235393524,  -0.012557107023894787,  -0.047102395445108414,   0.125250756740570068,  -0.099792629480361938,  -0.070460617542266846,   0.072240456938743591,  -0.009167276322841644,   0.133299350738525391,  -0.028349567204713821,  -0.076107613742351532,   0.107622779905796051,  -0.135000899434089661,  -0.104312233626842499,  -0.168799430131912231,  -0.030804362148046494,  -0.025212852284312248,   0.080616965889930725,  -0.068797633051872253,  -0.087972685694694519,   0.018724100664258003,   0.040828954428434372,  -0.138900443911552429,  -0.007962954230606556,   0.111153475940227509,  -0.014933977276086807,   0.098583668470382690,   0.037372566759586334,   0.024395940825343132,  -0.064573213458061218,   0.057440441101789474,  -0.040233027189970016,  -0.121238864958286285,   0.031350690871477127,  -0.179775997996330261,  -0.156538471579551697,  -0.193493917584419250,  -0.117110751569271088,  -0.175564706325531006,   0.112588763236999512,   0.055798664689064026,   0.123570010066032410,  -0.068234652280807495,  -0.165356084704399109,
		   0.104637801647186279,   0.148196414113044739,  -0.020716156810522079,   0.005288233980536461,  -0.018761646002531052,  -0.102115064859390259,  -0.002105508698150516,  -0.080324724316596985,   0.069677628576755524,  -0.000516234722454101,  -0.009354592300951481,   0.076439246535301208,   0.027084140107035637,   0.060428678989410400,   0.010036380961537361,   0.095874913036823273,   0.158389315009117126,   0.023905467242002487,  -0.076257593929767609,   0.105195678770542145,   0.059953961521387100,   0.109640948474407196,   0.135035559535026550,  -0.014746472239494324,   0.158362075686454773,   0.155717283487319946,   0.121458016335964203,   0.068729199469089508,  -0.091008387506008148,  -0.004664309322834015,   0.131759718060493469,   0.032833769917488098,  -0.026249077171087265,   0.069176152348518372,   0.025511393323540688,   0.008257143199443817,   0.037578482180833817,  -0.005619410425424576,   0.148932516574859619,   0.014767665416002274,  -0.063705205917358398,   0.206272944808006287,   0.158683761954307556,   0.089372806251049042,   0.011828553862869740,  -0.094597652554512024,   0.072318784892559052,   0.179552197456359863,
		  -0.061777010560035706,  -0.091917425394058228,   0.086529947817325592,   0.081289127469062805,   0.088728778064250946,  -0.124017372727394104,  -0.107058539986610413,  -0.038083422929048538,  -0.024296859279274940,   0.148504033684730530,   0.025014996528625488,  -0.085601560771465302,  -0.078179903328418732,  -0.046188946813344955,  -0.093151360750198364,  -0.059956971555948257,  -0.150475591421127319,  -0.050594512373209000,   0.012189546599984169,  -0.076149836182594299,  -0.165922820568084717,  -0.142131581902503967,   0.132767796516418457,  -0.076410338282585144,  -0.032188866287469864,  -0.047796074301004410,  -0.051434446126222610,  -0.111136920750141144,   0.001513922237791121,  -0.091183200478553772,   0.043219875544309616,   0.102557845413684845,  -0.020098837092518806,  -0.072258152067661285,  -0.034818518906831741,  -0.120237261056900024,  -0.023816434666514397,   0.082423493266105652,  -0.039690218865871429,   0.080430075526237488,   0.037499886006116867,  -0.056136220693588257,   0.035570107400417328,  -0.044422082602977753,   0.110225751996040344,  -0.109800100326538086,  -0.065702229738235474,   0.035133920609951019,
		   0.003971314057707787,  -0.124053329229354858,  -0.166314229369163513,  -0.046547651290893555,  -0.015269814990460873,  -0.044760916382074356,   0.018757205456495285,  -0.040277268737554550,  -0.009004036895930767,  -0.026397855952382088,  -0.137230783700942993,  -0.187192529439926147,   0.056376513093709946,  -0.122627556324005127,  -0.123183749616146088,   0.005771602503955364,  -0.019722364842891693,  -0.115626744925975800,  -0.028967505320906639,  -0.179362371563911438,  -0.166920974850654602,   0.084189370274543762,   0.048071920871734619,  -0.091526627540588379,   0.098732702434062958,  -0.081359602510929108,   0.053600013256072998,  -0.084155917167663574,   0.009269944392144680,   0.010053627192974091,   0.046161841601133347,   0.082315020263195038,   0.026454715058207512,  -0.109696030616760254,  -0.063879594206809998,  -0.084170997142791748,  -0.150692358613014221,   0.095110677182674408,  -0.118722885847091675,  -0.098871752619743347,  -0.052572969347238541,   0.098578870296478271,   0.032013483345508575,   0.049071099609136581,  -0.021895291283726692,  -0.181625500321388245,  -0.183359056711196899,   0.017621304839849472,
		  -0.054699894040822983,  -0.031395144760608673,  -0.038961037993431091,   0.056650619953870773,   0.059446215629577637,  -0.138094663619995117,   0.129716321825981140,  -0.093494586646556854,  -0.136633306741714478,  -0.008618881925940514,  -0.017182992771267891,   0.100979007780551910,   0.129212051630020142,  -0.146698102355003357,   0.031104572117328644,   0.025895765051245689,  -0.110763303935527802,  -0.198732122778892517,   0.023918451741337776,   0.007097783964127302,  -0.144679412245750427,  -0.093990772962570190,  -0.094157539308071136,  -0.196323499083518982,   0.044247727841138840,  -0.106850191950798035,  -0.031494863331317902,   0.082145340740680695,   0.086683653295040131,  -0.132577568292617798,   0.039713010191917419,  -0.045589815825223923,   0.037134047597646713,  -0.114438533782958984,  -0.039849348366260529,  -0.153153091669082642,  -0.146019056439399719,   0.045557022094726562,   0.084922023117542267,   0.052754767239093781,   0.050126828253269196,   0.026554897427558899,   0.010965585708618164,   0.067032761871814728,   0.013651339337229729,   0.070731066167354584,  -0.115135632455348969,  -0.204158157110214233,
		   0.094495259225368500,  -0.156629279255867004,   0.009818433783948421,  -0.123450137674808502,  -0.063529193401336670,   0.039534877985715866,  -0.075046434998512268,  -0.011512297205626965,  -0.002577364444732666,   0.001253015827387571,  -0.148577600717544556,  -0.025639623403549194,   0.055597528815269470,   0.059060152620077133,  -0.133626401424407959,   0.015817033126950264,   0.037960804998874664,  -0.045439559966325760,   0.044360183179378510,   0.048758968710899353,  -0.044631525874137878,  -0.149510771036148071,   0.087645187973976135,  -0.111140452325344086,  -0.011749321594834328,  -0.000076564923801925,  -0.047150168567895889,   0.026970919221639633,  -0.133548215031623840,   0.061079785227775574,  -0.052195634692907333,  -0.099733240902423859,   0.032390564680099487,   0.001305662794038653,   0.084385856986045837,  -0.047990031540393829,  -0.016449188813567162,   0.038690187036991119,   0.065887540578842163,   0.012283770367503166,  -0.189933359622955322,  -0.224218890070915222,  -0.026209453120827675,  -0.089597441256046295,   0.030947018414735794,  -0.066027954220771790,  -0.036922544240951538,  -0.140550091862678528,
		   0.057462040334939957,  -0.074758999049663544,   0.120023742318153381,   0.047004625201225281,  -0.075138740241527557,   0.154395803809165955,   0.027145924046635628,   0.140760496258735657,  -0.066787995398044586,   0.049561083316802979,   0.118814341723918915,   0.082001008093357086,   0.032288517802953720,   0.096602953970432281,   0.029245864599943161,  -0.018244057893753052,   0.053044829517602921,   0.060417421162128448,  -0.144363626837730408,   0.010362757369875908,  -0.003107965225353837,  -0.135443657636642456,  -0.110549405217170715,   0.071278728544712067,   0.117598503828048706,   0.114605680108070374,  -0.119898632168769836,   0.104630753397941589,   0.072770416736602783,  -0.080859571695327759,   0.071434430778026581,   0.103117063641548157,  -0.121725335717201233,   0.111563459038734436,  -0.023631276562809944,  -0.020944511517882347,  -0.011944940313696861,  -0.039479851722717285,  -0.083110868930816650,   0.076675146818161011,  -0.128836557269096375,  -0.184868931770324707,  -0.143163174390792847,   0.125471293926239014,  -0.032582931220531464,   0.021134151145815849,   0.093273557722568512,  -0.111196376383304596,
		  -0.145380899310112000,  -0.040387462824583054,  -0.099400579929351807,   0.012294747866690159,  -0.108507566154003143,  -0.029944021254777908,  -0.055760532617568970,  -0.083575643599033356,  -0.083833381533622742,   0.146625295281410217,   0.002742210635915399,  -0.101951554417610168,   0.054710004478693008,  -0.045062921941280365,   0.093035846948623657,  -0.058828905224800110,  -0.033113390207290649,  -0.176600277423858643,   0.011958690360188484,   0.084141820669174194,  -0.108642481267452240,   0.093165323138237000,   0.154055163264274597,  -0.101055383682250977,  -0.038491599261760712,  -0.055925697088241577,  -0.000856936909258366,   0.025388823822140694,   0.015262376517057419,   0.081074163317680359,   0.007300006691366434,   0.155556708574295044,  -0.048447929322719574,   0.164258673787117004,  -0.056159261614084244,   0.105457454919815063,  -0.087048120796680450,  -0.029539849609136581,   0.005721843801438808,  -0.052963994443416595,   0.049772176891565323,  -0.181449338793754578,   0.096073672175407410,  -0.049697693437337875,  -0.011371552944183350,   0.029216563329100609,  -0.116089500486850739,  -0.204270392656326294,
		   0.123481638729572296,   0.003702368587255478,  -0.013035267591476440,  -0.016295766457915306,  -0.031110117211937904,  -0.059825535863637924,   0.025256291031837463,  -0.104023613035678864,   0.036594763398170471,  -0.058286163955926895,  -0.082161404192447662,  -0.022360613569617271,  -0.102263003587722778,   0.105560906231403351,  -0.101202107965946198,   0.020144926384091377,  -0.096624195575714111,  -0.110916256904602051,  -0.126184895634651184,  -0.002041050465777516,  -0.099139727652072906,  -0.035245355218648911,   0.112516358494758606,  -0.068924784660339355,  -0.059468094259500504,   0.078005261719226837,  -0.074139177799224854,   0.030428400263190269,   0.016806803643703461,  -0.108100414276123047,  -0.065617233514785767,  -0.089701674878597260,  -0.044010449200868607,  -0.081475853919982910,   0.015696996822953224,   0.009806212969124317,  -0.012606726959347725,  -0.085679784417152405,   0.094896763563156128,  -0.060334939509630203,  -0.172253847122192383,   0.034038424491882324,  -0.167589157819747925,   0.061056818813085556,   0.124520674347877502,  -0.107221886515617371,   0.010584514588117599,  -0.158202469348907471,
		  -0.046123575419187546,  -0.119731500744819641,  -0.144239038228988647,   0.027118692174553871,  -0.148928269743919373,  -0.081912070512771606,   0.131712809205055237,  -0.140366449952125549,  -0.069119125604629517,  -0.047299496829509735,   0.004944362677633762,  -0.045831110328435898,  -0.032627008855342865,   0.065528221428394318,  -0.039507649838924408,  -0.127604618668556213,  -0.144811064004898071,  -0.017395449802279472,  -0.092665500938892365,  -0.111924834549427032,   0.055034592747688293,   0.088399760425090790,   0.034282192587852478,  -0.193687990307807922,   0.038271289318799973,  -0.076638065278530121,   0.036467719823122025,   0.053995989263057709,   0.052569720894098282,  -0.013348110951483250,   0.095646470785140991,  -0.118549622595310211,  -0.120414309203624725,  -0.130507960915565491,  -0.047617513686418533,  -0.031848024576902390,  -0.142555087804794312,  -0.015452180057764053,   0.030988095328211784,  -0.150718480348587036,  -0.124587737023830414,  -0.238715916872024536,  -0.150257751345634460,  -0.059581670910120010,  -0.043321110308170319,  -0.086259998381137848,   0.073475956916809082,  -0.203551769256591797,
		   0.126236617565155029,   0.017348209396004677,  -0.077523328363895416,  -0.048946883529424667,  -0.042074777185916901,  -0.082561962306499481,   0.038146499544382095,  -0.035845011472702026,  -0.023664193227887154,   0.102402172982692719,  -0.145481795072555542,  -0.037540432065725327,  -0.069719299674034119,  -0.077300295233726501,   0.099983312189579010,  -0.134226694703102112,   0.103832565248012543,   0.181414261460304260,  -0.108275778591632843,  -0.015857079997658730,  -0.034719537943601608,  -0.038670122623443604,   0.016417708247900009,   0.073741160333156586,  -0.029645137488842010,  -0.123104028403759003,  -0.060167830437421799,   0.013591964729130268,   0.011823143810033798,  -0.042650785297155380,  -0.014328787103295326,   0.054187867790460587,   0.079583883285522461,  -0.162460103631019592,   0.044654928147792816,   0.128098636865615845,   0.039586134254932404,  -0.075309194624423981,  -0.085678227245807648,   0.071695312857627869,  -0.060256410390138626,   0.209568366408348083,  -0.089812248945236206,   0.039207845926284790,  -0.085574142634868622,   0.027354927733540535,   0.002839191118255258,   0.132661610841751099,
		  -0.065481267869472504,   0.104507453739643097,   0.036746755242347717,  -0.110377676784992218,   0.032013192772865295,   0.005341478623449802,   0.016887286677956581,   0.144994974136352539,   0.046478953212499619,  -0.106404304504394531,   0.136638581752777100,   0.099010616540908813,  -0.003494796343147755,  -0.090608879923820496,   0.059943016618490219,  -0.119636774063110352,   0.072003997862339020,  -0.218301624059677124,   0.061041042208671570,  -0.119245782494544983,   0.028556486591696739,   0.001623120740987360,  -0.146166488528251648,   0.048047464340925217,  -0.014046982862055302,   0.115134656429290771,   0.090220607817173004,  -0.040973309427499771,  -0.096829794347286224,   0.013741422444581985,   0.030967814847826958,  -0.041157934814691544,  -0.054501492530107498,   0.128602996468544006,   0.120351754128932953,   0.108165301382541656,  -0.114939890801906586,  -0.103484518826007843,   0.052882049232721329,  -0.136144459247589111,   0.024641353636980057,  -0.087184548377990723,   0.084630720317363739,  -0.080296166241168976,   0.119390174746513367,  -0.138373956084251404,   0.006401062943041325,  -0.127474218606948853,
		   0.159982994198799133,  -0.039654430001974106,   0.037776324898004532,  -0.104602642357349396,   0.029255596920847893,   0.013968098908662796,  -0.070992887020111084,   0.119602181017398834,   0.156138256192207336,  -0.073183871805667877,  -0.094905838370323181,   0.078841298818588257,  -0.021764099597930908,   0.120298117399215698,  -0.101098299026489258,  -0.006418752484023571,   0.187447547912597656,   0.100403569638729095,   0.208419129252433777,   0.089893817901611328,   0.103678047657012939,   0.155674487352371216,  -0.082810722291469574,   0.166682451963424683,  -0.018329033628106117,  -0.063173331320285797,   0.159977540373802185,   0.006093886680901051,  -0.001285710372030735,  -0.010763422586023808,  -0.110453248023986816,  -0.062893696129322052,  -0.019687671214342117,   0.159299463033676147,   0.128956094384193420,   0.184320077300071716,   0.177857577800750732,   0.167636960744857788,   0.177569925785064697,  -0.039107546210289001,  -0.027859702706336975,   0.005532428622245789,   0.026718821376562119,   0.108235456049442291,   0.043186735361814499,  -0.046650499105453491,  -0.056692879647016525,   0.222587287425994873,
		   0.027199441567063332,  -0.026372510939836502,  -0.023735387250781059,   0.050056330859661102,  -0.012562972493469715,   0.127638772130012512,   0.084896363317966461,  -0.055114336311817169,   0.150366902351379395,   0.027789391577243805,   0.032858904451131821,  -0.062489736825227737,   0.109780192375183105,   0.136005923151969910,   0.002706402679905295,  -0.071784257888793945,   0.120296835899353027,   0.022880714386701584,   0.180990248918533325,  -0.034149281680583954,  -0.101041629910469055,  -0.074721723794937134,   0.155351877212524414,   0.153235226869583130,   0.118899308145046234,   0.029837753623723984,  -0.052449617534875870,   0.093112766742706299,   0.061377678066492081,  -0.077707283198833466,  -0.011463488452136517,   0.018250141292810440,   0.082404136657714844,  -0.010343374684453011,   0.165098622441291809,   0.061647802591323853,  -0.082319542765617371,   0.091013409197330475,  -0.066924795508384705,  -0.025907546281814575,   0.083383612334728241,   0.236092478036880493,   0.036129117012023926,  -0.013761483132839203,   0.069094970822334290,  -0.105984285473823547,   0.070724204182624817,   0.198194921016693115,
		  -0.018498105928301811,   0.129379451274871826,   0.021107306703925133,  -0.043593119829893112,   0.131307899951934814,  -0.113841816782951355,   0.112168096005916595,   0.005409646779298782,   0.071227356791496277,   0.041113417595624924,   0.081673026084899902,   0.028220914304256439,   0.102591194212436676,   0.079025611281394958,   0.121862784028053284,   0.068214900791645050,   0.085954181849956512,  -0.168265059590339661,  -0.048064507544040680,   0.001599310780875385,   0.023506186902523041,   0.037558834999799728,  -0.093195334076881409,  -0.191561773419380188,   0.002082026097923517,   0.102932274341583252,  -0.104209043085575104,  -0.158244669437408447,  -0.072606131434440613,   0.071390211582183838,   0.041253633797168732,   0.125942140817642212,   0.069925032556056976,  -0.104536794126033783,   0.031786728650331497,  -0.061721410602331161,  -0.115580759942531586,   0.011220466345548630,   0.017311727628111839,  -0.035453800112009048,   0.023115202784538269,   0.032537333667278290,  -0.046072036027908325,  -0.152752652764320374,   0.089386790990829468,  -0.080860413610935211,  -0.142630249261856079,  -0.001038932241499424,
		   0.001406693481840193,   0.021644307300448418,  -0.067309215664863586,  -0.089147344231605530,  -0.010290267877280712,   0.044577438384294510,   0.139594435691833496,   0.102902159094810486,   0.135523214936256409,  -0.055151604115962982,  -0.114234745502471924,   0.051285643130540848,   0.053325068205595016,   0.081919059157371521,  -0.067791841924190521,  -0.086002275347709656,   0.068579904735088348,   0.197592213749885559,   0.014988054521381855,   0.028286151587963104,   0.009554819203913212,   0.113063991069793701,   0.064504839479923248,   0.171415165066719055,   0.037828680127859116,   0.033138811588287354,   0.137212485074996948,   0.059932209551334381,   0.144529536366462708,  -0.048664174973964691,  -0.043243996798992157,   0.136671736836433411,  -0.040452901273965836,   0.115775190293788910,   0.038716875016689301,  -0.027933306992053986,   0.002070277929306030,  -0.019039034843444824,   0.042402692139148712,  -0.060574151575565338,   0.065344862639904022,   0.225320950150489807,  -0.062362343072891235,   0.122671373188495636,  -0.097947821021080017,  -0.057901177555322647,   0.011568034999072552,   0.195627838373184204,
		  -0.033411994576454163,  -0.050995856523513794,   0.078464232385158539,  -0.101810060441493988,  -0.095142498612403870,   0.033464491367340088,  -0.027710564434528351,  -0.128978833556175232,  -0.094510987401008606,   0.026043772697448730,  -0.113737747073173523,  -0.005044265184551477,  -0.076937817037105560,   0.109447047114372253,  -0.003281770972535014,   0.126161411404609680,   0.101085603237152100,   0.073531024158000946,   0.001679701381362975,   0.010792400687932968,  -0.158280596137046814,  -0.134971246123313904,  -0.111192010343074799,  -0.171177044510841370,  -0.031566258519887924,  -0.022283829748630524,   0.086058542132377625,  -0.138188198208808899,   0.081218138337135315,   0.094262219965457916,   0.101349346339702606,  -0.112574085593223572,   0.039721686393022537,  -0.000757239817176014,  -0.056353881955146790,  -0.075262844562530518,  -0.121607825160026550,  -0.033587176352739334,   0.047018647193908691,  -0.011816503480076790,  -0.052647724747657776,  -0.049485690891742706,  -0.179851919412612915,  -0.130277127027511597,   0.035924922674894333,  -0.046114366501569748,  -0.130109012126922607,  -0.030048668384552002,
		  -0.063065424561500549,   0.076897956430912018,   0.125922232866287231,   0.142887428402900696,   0.055454846471548080,   0.064359463751316071,  -0.036578405648469925,   0.141475960612297058,   0.161684304475784302,   0.124584242701530457,   0.089657247066497803,  -0.120367579162120819,  -0.125542610883712769,   0.048438183963298798,  -0.049593869596719742,   0.002998002804815769,  -0.015433161519467831,   0.219317302107810974,  -0.070575132966041565,   0.002118948614224792,   0.093703866004943848,   0.124790534377098083,   0.007086551282554865,   0.064918108284473419,   0.041714690625667572,  -0.028909888118505478,   0.139935374259948730,  -0.002281527500599623,  -0.022257043048739433,   0.026211580261588097,   0.135250017046928406,   0.154009833931922913,   0.081442780792713165,   0.078069850802421570,   0.107815735042095184,   0.058262962847948074,   0.032703276723623276,   0.082122936844825745,  -0.010565158911049366,  -0.051188942044973373,   0.013905329629778862,   0.055260781198740005,   0.030376406386494637,   0.157513961195945740,   0.125146135687828064,   0.116062432527542114,   0.033365599811077118,   0.167080521583557129,
		   0.056163582950830460,   0.056018512696027756,   0.145543351769447327,  -0.133256763219833374,   0.090808413922786713,   0.153475642204284668,  -0.012435927055776119,   0.021025510504841805,  -0.030122011899948120,  -0.068296626210212708,   0.077424161136150360,  -0.010918001644313335,   0.127322211861610413,  -0.015416597016155720,  -0.087915852665901184,   0.070178665220737457,  -0.061756163835525513,   0.078290767967700958,   0.028862152248620987,  -0.060816079378128052,   0.063631422817707062,  -0.134810432791709900,  -0.043648779392242432,  -0.220649048686027527,   0.028519671410322189,   0.068579368293285370,   0.103371821343898773,   0.012174431234598160,  -0.012954905629158020,  -0.033368863165378571,  -0.058564674109220505,   0.064771808683872223,  -0.069338053464889526,   0.133591085672378540,   0.006234460044652224,  -0.088472209870815277,   0.077863201498985291,  -0.031599760055541992,   0.073074541985988617,  -0.082751870155334473,  -0.018866140395402908,  -0.165093824267387390,   0.085599787533283234,  -0.093317084014415741,   0.007419424597173929,   0.076638579368591309,  -0.065989531576633453,  -0.123912401497364044,
		  -0.148807898163795471,  -0.011277826502919197,   0.109036818146705627,   0.103230379521846771,  -0.072483934462070465,  -0.056470274925231934,  -0.063802517950534821,  -0.059424672275781631,  -0.040287118405103683,  -0.020706417039036751,   0.138982340693473816,  -0.085304334759712219,   0.083156898617744446,   0.111107885837554932,  -0.032169979065656662,   0.049033846706151962,  -0.132682770490646362,  -0.171106413006782532,  -0.170952349901199341,   0.067389555275440216,   0.043692439794540405,  -0.068939834833145142,  -0.012141202576458454,  -0.100393526256084442,  -0.087099574506282806,  -0.113696932792663574,   0.052084214985370636,  -0.017417646944522858,   0.117865793406963348,  -0.029850432649254799,   0.068982705473899841,  -0.106855742633342743,  -0.126065790653228760,  -0.123039938509464264,  -0.125350385904312134,   0.078316114842891693,   0.093413032591342926,  -0.159815683960914612,  -0.004678430967032909,  -0.043737057596445084,  -0.124070033431053162,  -0.100157193839550018,   0.048796866089105606,   0.096512801945209503,   0.051699887961149216,  -0.119115293025970459,   0.047677971422672272,  -0.200944691896438599,
		   0.148881390690803528,   0.103880181908607483,   0.133407965302467346,  -0.010026194155216217,   0.092970944941043854,  -0.060511283576488495,  -0.042560771107673645,   0.058506283909082413,   0.149892508983612061,  -0.003199306782335043,   0.171158060431480408,  -0.004030040465295315,   0.157829001545906067,   0.056859798729419708,   0.118631958961486816,  -0.032955288887023926,   0.069648489356040955,  -0.066150106489658356,   0.192105621099472046,   0.024379475042223930,   0.106751807034015656,   0.022233095020055771,   0.077804848551750183,   0.074176609516143799,   0.080595210194587708,   0.065850771963596344,  -0.035503018647432327,  -0.001116397907026112,  -0.052830465137958527,   0.102618366479873657,  -0.001213572104461491,  -0.032175339758396149,  -0.074263468384742737,   0.098962359130382538,   0.041706595569849014,  -0.014146627858281136,   0.123785108327865601,   0.038207929581403732,   0.189530953764915466,   0.063820287585258484,   0.194566741585731506,  -0.014060521498322487,   0.126179888844490051,   0.059373497962951660,  -0.008687364868819714,   0.086488798260688782,   0.022113243117928505,   0.037351865321397781,
		  -0.074359275400638580,   0.086445011198520660,  -0.094294048845767975,  -0.077706202864646912,   0.067088946700096130,  -0.029161194339394569,   0.021865114569664001,  -0.084570378065109253,   0.026192162185907364,  -0.036861401051282883,  -0.052937597036361694,   0.101707264780998230,   0.100361622869968414,  -0.106582976877689362,  -0.123860061168670654,  -0.026746163144707680,  -0.062404088675975800,  -0.066030986607074738,  -0.039498899132013321,  -0.143150806427001953,  -0.137559056282043457,  -0.124760366976261139,   0.058183420449495316,  -0.175130888819694519,  -0.144152685999870300,  -0.092047654092311859,  -0.024642927572131157,   0.050670668482780457,   0.053584620356559753,   0.024991365149617195,  -0.092182666063308716,   0.066823482513427734,   0.013952892273664474,   0.093287065625190735,  -0.040205292403697968,  -0.182285532355308533,   0.052824921905994415,  -0.058581303805112839,  -0.004833093378692865,   0.051007140427827835,  -0.123070113360881805,  -0.196633815765380859,  -0.082564637064933777,  -0.093668147921562195,  -0.064612530171871185,   0.053760040551424026,  -0.148463949561119080,  -0.222114726901054382,
		  -0.025720268487930298,  -0.080864243209362030,   0.035264756530523300,  -0.069560341536998749,  -0.112952530384063721,   0.105178028345108032,  -0.071631416678428650,   0.100425325334072113,   0.092481099069118500,  -0.080381229519844055,  -0.082225389778614044,  -0.141872212290763855,   0.047559868544340134,  -0.075846828520298004,   0.007983224466443062,  -0.104306019842624664,   0.056552570313215256,  -0.122517012059688568,   0.024031223729252815,   0.097792118787765503,   0.067906431853771210,  -0.051261506974697113,  -0.084711335599422455,  -0.121343836188316345,   0.003699012333527207,   0.067866705358028412,   0.055240381509065628,   0.003384921466931701,   0.043473914265632629,   0.100596733391284943,   0.056438382714986801,   0.007329539395868778,   0.119021713733673096,  -0.001868864521384239,   0.038485266268253326,   0.031822022050619125,  -0.031170064583420753,   0.007045614533126354,   0.023974740877747536,  -0.074239045381546021,  -0.090874969959259033,  -0.156214594841003418,   0.002753272186964750,  -0.017505597323179245,  -0.149852097034454346,  -0.081084080040454865,  -0.135362967848777771,  -0.095162838697433472,
		   0.015126985497772694,   0.142451912164688110,  -0.066881231963634491,   0.046810522675514221,   0.010044508613646030,   0.038766369223594666,   0.022997304797172546,   0.082137085497379303,  -0.016551822423934937,   0.031470675021409988,   0.046155042946338654,   0.048432093113660812,  -0.011860406957566738,   0.029550692066550255,  -0.105984315276145935,   0.031666669994592667,  -0.056238945573568344,   0.212706640362739563,   0.028911633417010307,   0.159871026873588562,  -0.073138184845447540,   0.166613876819610596,   0.021343052387237549,   0.069831863045692444,   0.023372603580355644,   0.073445722460746765,   0.137832671403884888,   0.130798399448394775,  -0.065902590751647949,   0.139296799898147583,   0.036470320075750351,   0.108698114752769470,   0.041501596570014954,   0.044430598616600037,   0.048141874372959137,   0.068347305059432983,   0.009047470055520535,   0.001130225020460784,   0.134019136428833008,   0.113475091755390167,   0.017592938616871834,   0.027246955782175064,  -0.013159720227122307,   0.073106676340103149,   0.072250030934810638,   0.092054314911365509,  -0.106946982443332672,   0.235244184732437134,
		  -0.039489399641752243,   0.109030768275260925,   0.170187667012214661,   0.127079114317893982,   0.064323768019676208,   0.021541897207498550,   0.144965782761573792,  -0.066386438906192780,  -0.086508013308048248,   0.081390656530857086,   0.164445340633392334,  -0.081568509340286255,   0.068769492208957672,  -0.057179942727088928,  -0.054709151387214661,  -0.007221158593893051,   0.103233039379119873,   0.148557826876640320,   0.020797090604901314,   0.154264092445373535,  -0.086937300860881805,  -0.072785109281539917,  -0.065286360681056976,   0.217318773269653320,  -0.094300761818885803,   0.163857042789459229,   0.065486304461956024,   0.127480834722518921,  -0.085542201995849609,   0.104067027568817139,   0.072647221386432648,  -0.105287194252014160,   0.117911823093891144,   0.024320831522345543,   0.105448134243488312,   0.133816868066787720,   0.038801271468400955,  -0.030194446444511414,   0.148214399814605713,  -0.065241105854511261,  -0.001432084594853222,  -0.001553925685584545,   0.097528532147407532,   0.085706859827041626,  -0.020733878016471863,   0.066475845873355865,   0.143035903573036194,   0.041625019162893295,
		  -0.000589703966397792,  -0.084779992699623108,  -0.113460861146450043,  -0.135552734136581421,  -0.071622632443904877,  -0.014191093854606152,  -0.134865731000900269,  -0.188675373792648315,  -0.079492308199405670,  -0.011978305876255035,  -0.099608436226844788,   0.074688851833343506,  -0.174382388591766357,  -0.184387430548667908,   0.007568473462015390,  -0.165643885731697083,  -0.159323990345001221,   0.118388622999191284,  -0.011558629572391510,   0.073865644633769989,  -0.123468682169914246,   0.044690720736980438,  -0.078344389796257019,   0.110737226903438568,   0.000006799600669183,   0.038965441286563873,   0.103511802852153778,  -0.058125738054513931,   0.042326189577579498,  -0.101766422390937805,   0.084453165531158447,  -0.132174625992774963,  -0.065959349274635315,  -0.011344745755195618,  -0.051930278539657593,  -0.057372737675905228,   0.000822855101432651,   0.056954689323902130,  -0.031227758154273033,  -0.110493503510951996,   0.101624891161918640,   0.053863070905208588,   0.077032156288623810,  -0.143612816929817200,   0.053013511002063751,   0.093842014670372009,   0.021593688055872917,  -0.072897836565971375,
		   0.131735444068908691,   0.105589337646961212,  -0.017905896529555321,  -0.140851691365242004,   0.038528889417648315,  -0.065885990858078003,   0.097455851733684540,  -0.039019342511892319,  -0.152242496609687805,  -0.026749715209007263,  -0.150332197546958923,  -0.077456548810005188,   0.038513965904712677,  -0.146350786089897156,  -0.124035716056823730,   0.054961565881967545,  -0.173261746764183044,   0.007709068711847067,   0.011979185044765472,  -0.142891138792037964,  -0.023919777944684029,   0.015106420964002609,   0.006042185705155134,   0.007130179088562727,   0.035658277571201324,  -0.025358345359563828,   0.023725498467683792,  -0.194580778479576111,   0.029841845855116844,   0.040845829993486404,  -0.067711532115936279,   0.007721786387264729,  -0.149652883410453796,   0.070953987538814545,  -0.122897095978260040,  -0.135258823633193970,  -0.070056580007076263,  -0.037602774798870087,   0.015555912628769875,  -0.067117042839527130,  -0.196101501584053040,  -0.035698324441909790,  -0.021376702934503555,  -0.165358528494834900,  -0.108296990394592285,   0.010923988185822964,  -0.126114189624786377,  -0.214565351605415344,
		  -0.062037725001573563,   0.110707819461822510,  -0.024127919226884842,  -0.013349287211894989,  -0.076568670570850372,  -0.138785764575004578,   0.040041435509920120,   0.080137379467487335,  -0.057429961860179901,  -0.149432301521301270,  -0.041398216038942337,  -0.140231102705001831,   0.063308596611022949,   0.084765821695327759,  -0.123975545167922974,  -0.059358716011047363,   0.059455808252096176,   0.080573633313179016,   0.053965181112289429,  -0.117127604782581329,   0.026953851804137230,   0.055075876414775848,  -0.128504484891891479,   0.013973372057080269,   0.108464904129505157,  -0.007577444426715374,  -0.100271128118038177,   0.059810172766447067,   0.040839329361915588,   0.073687948286533356,  -0.097461447119712830,   0.046743232756853104,  -0.012041872367262840,  -0.032028499990701675,   0.064615756273269653,  -0.093097306787967682,   0.132350102066993713,  -0.089369483292102814,   0.009877254255115986,  -0.022342443466186523,  -0.173663452267646790,  -0.119409620761871338,  -0.009764960035681725,  -0.028529895469546318,  -0.133462980389595032,  -0.131263151764869690,  -0.099587596952915192,   0.034563891589641571,
		   0.087405093014240265,   0.092133603990077972,  -0.111609213054180145,  -0.164814919233322144,   0.088473781943321228,  -0.130188286304473877,  -0.048548936843872070,  -0.125765308737754822,  -0.117986641824245453,   0.000176972753251903,  -0.140783473849296570,  -0.036957290023565292,  -0.115204080939292908,  -0.020084980875253677,  -0.058157756924629211,   0.126726284623146057,  -0.151580378413200378,  -0.212010905146598816,  -0.134643718600273132,  -0.165812686085700989,   0.052695710211992264,   0.059055678546428680,   0.028178596869111061,  -0.199139699339866638,  -0.043204881250858307,  -0.145254284143447876,  -0.130483269691467285,  -0.144737735390663147,  -0.110362626612186432,  -0.110894337296485901,  -0.069098204374313354,  -0.082017563283443451,   0.003040237817913294,   0.025658901780843735,  -0.087423197925090790,  -0.119721740484237671,  -0.129657089710235596,  -0.079836785793304443,  -0.118276432156562805,   0.108220681548118591,  -0.041318655014038086,  -0.053434532135725021,  -0.035951130092144012,   0.029879258945584297,  -0.021680727601051331,  -0.013814794830977917,  -0.149678170680999756,  -0.170052826404571533,
		   0.096573263406753540,  -0.164411619305610657,   0.022207848727703094,  -0.164972215890884399,  -0.044025279581546783,  -0.139501556754112244,   0.124339640140533447,   0.024233873933553696,   0.119651086628437042,   0.149972990155220032,  -0.103764541447162628,  -0.002723023528233171,  -0.105943590402603149,   0.000468124606413767,  -0.041658546775579453,  -0.041096586734056473,  -0.017557449638843536,  -0.091317497193813324,  -0.008445464074611664,   0.096865855157375336,  -0.164589911699295044,  -0.069156371057033539,   0.046694055199623108,  -0.098581083118915558,   0.011780865490436554,   0.122432254254817963,   0.087192662060260773,  -0.035533368587493896,   0.030580295249819756,   0.115650177001953125,  -0.023499285802245140,  -0.028978485614061356,  -0.049588296562433243,   0.115576691925525665,   0.003283326979726553,   0.074863806366920471,  -0.137070089578628540,  -0.156865000724792480,   0.013065312989056110,  -0.095383197069168091,  -0.131064504384994507,  -0.072588048875331879,   0.100596599280834198,   0.095862545073032379,  -0.074661709368228912,  -0.020291393622756004,  -0.035056710243225098,   0.005202531814575195,
		  -0.051045194268226624,  -0.087639756500720978,  -0.037517011165618896,  -0.029141353443264961,  -0.120756164193153381,  -0.073390811681747437,  -0.120943769812583923,  -0.155922889709472656,  -0.154601931571960449,  -0.055687349289655685,  -0.146108195185661316,   0.091769702732563019,  -0.150148183107376099,   0.015378664247691631,   0.024526173248887062,  -0.016850439831614494,  -0.043749686330556870,   0.052198953926563263,  -0.110363714396953583,   0.031536746770143509,   0.094064444303512573,  -0.085365988314151764,  -0.057432260364294052,   0.031282879412174225,  -0.143697604537010193,   0.110571995377540588,  -0.076085142791271210,   0.047124568372964859,  -0.143035694956779480,  -0.013723351992666721,  -0.094217337667942047,  -0.131230458617210388,   0.010959403589367867,   0.040800232440233231,   0.097250260412693024,   0.074253439903259277,   0.009252917952835560,   0.017232073470950127,  -0.079715110361576080,   0.039410870522260666,  -0.101773604750633240,  -0.011963455006480217,  -0.029520086944103241,  -0.132230475544929504,  -0.019328454509377480,  -0.080524735152721405,  -0.077110923826694489,   0.019696922972798347,
		   0.042687393724918365,   0.030711427330970764,   0.096324987709522247,   0.039270028471946716,   0.053783234208822250,   0.043157238513231277,  -0.083800211548805237,   0.031131593510508537,  -0.028684815391898155,  -0.040875751525163651,  -0.115702375769615173,   0.080452047288417816,   0.008579503744840622,  -0.095422700047492981,  -0.014595778658986092,  -0.095873922109603882,  -0.020384095609188080,   0.020736392587423325,   0.084865659475326538,   0.082822032272815704,   0.142634838819503784,   0.089088506996631622,   0.053223758935928345,  -0.046415898948907852,   0.014568937942385674,   0.100182913243770599,   0.007696365471929312,  -0.000061638384067919,   0.052349306643009186,  -0.031300701200962067,  -0.021985094994306564,  -0.031850315630435944,   0.096748717129230499,  -0.082597382366657257,  -0.080755971372127533,  -0.084585711359977722,  -0.098626255989074707,   0.100687578320503235,   0.092828884720802307,  -0.140371009707450867,  -0.190543189644813538,  -0.216401636600494385,  -0.174500107765197754,   0.129098385572433472,  -0.118342526257038116,  -0.085055187344551086,  -0.028977170586585999,  -0.230354741215705872,
		   0.033622063696384430,  -0.043065577745437622,  -0.032428529113531113,   0.046737860888242722,   0.023506931960582733,  -0.088688030838966370,  -0.009298408403992653,  -0.052577391266822815,  -0.011587084271013737,   0.120526224374771118,  -0.039239630103111267,  -0.103738576173782349,   0.106800466775894165,  -0.044626604765653610,   0.117852956056594849,   0.145697012543678284,  -0.063388168811798096,  -0.082744039595127106,   0.047879364341497421,   0.029693260788917542,   0.047336049377918243,   0.012357225641608238,   0.023730117827653885,  -0.058230929076671600,   0.044589783996343613,  -0.098658181726932526,   0.102160573005676270,   0.055225960910320282,   0.093320935964584351,   0.033489171415567398,  -0.037228155881166458,  -0.036462653428316116,   0.126652881503105164,  -0.040801230818033218,  -0.035490535199642181,  -0.027976324781775475,  -0.124198220670223236,   0.036834940314292908,  -0.126236811280250549,   0.051388420164585114,   0.041657663881778717,  -0.088704645633697510,  -0.127076089382171631,  -0.139252334833145142,  -0.013100622221827507,   0.136158242821693420,  -0.123456895351409912,  -0.112431578338146210,
		   0.030390594154596329,  -0.095777198672294617,   0.040643636137247086,  -0.015693100169301033,   0.096131794154644012,  -0.000066875953052659,   0.007644267287105322,   0.048779223114252090,   0.019295243546366692,   0.088617712259292603,   0.009376393631100655,   0.008606882765889168,  -0.062419231981039047,   0.129567205905914307,   0.134540960192680359,   0.163106605410575867,   0.122678935527801514,   0.222318336367607117,   0.139113172888755798,   0.048052012920379639,   0.044059216976165771,  -0.057117760181427002,   0.006804092321544886,   0.173806056380271912,   0.081409148871898651,   0.088503278791904449,  -0.012902216985821724,  -0.038638573139905930,  -0.088986568152904510,   0.036538742482662201,   0.033576149493455887,   0.017322028055787086,   0.073113940656185150,   0.065085627138614655,   0.146686851978302002,  -0.064890004694461823,   0.032589010894298553,  -0.031113427132368088,   0.034855019301176071,   0.139965787529945374,   0.147163093090057373,   0.062804080545902252,   0.028837665915489197,   0.122060902416706085,   0.042082738131284714,  -0.005482014268636703,   0.148437038064002991,   0.113536186516284943,
		   0.073621332645416260,  -0.127980679273605347,  -0.026584761217236519,  -0.076330490410327911,  -0.129158422350883484,   0.046237703412771225,   0.121108956634998322,   0.122397705912590027,  -0.109163232147693634,  -0.114652551710605621,  -0.160853758454322815,  -0.043331895023584366,   0.060629464685916901,  -0.026804722845554352,   0.036659657955169678,  -0.104238636791706085,  -0.092638961970806122,  -0.039555765688419342,   0.040489099919795990,   0.081985339522361755,  -0.004275815095752478,  -0.043551150709390640,  -0.150317892432212830,   0.080026954412460327,  -0.101714700460433960,   0.119875289499759674,   0.033591225743293762,  -0.078979931771755219,  -0.148390352725982666,   0.138796344399452209,  -0.036080352962017059,  -0.089313112199306488,  -0.151187360286712646,  -0.104779161512851715,  -0.135690867900848389,  -0.172016814351081848,   0.063152089715003967,  -0.057506330311298370,  -0.076305560767650604,   0.008271171711385250,  -0.065165728330612183,   0.035847358405590057,  -0.006376751232892275,   0.002610589843243361,  -0.039145715534687042,  -0.006366608198732138,  -0.040701050311326981,  -0.000937500561121851,
		   0.052194759249687195,   0.159192755818367004,  -0.061447516083717346,  -0.036587953567504883,  -0.039514970034360886,  -0.014403978362679482,   0.088719196617603302,   0.030712798237800598,   0.067898176610469818,  -0.067678950726985931,   0.096141256392002106,   0.067671865224838257,   0.028617082163691521,   0.097887478768825531,  -0.059889856725931168,  -0.120611406862735748,   0.160904735326766968,   0.113701149821281433,   0.111562252044677734,  -0.096492841839790344,  -0.104930959641933441,   0.169079706072807312,  -0.044972799718379974,   0.178824260830879211,   0.030400065705180168,  -0.037886511534452438,   0.142578557133674622,  -0.086253114044666290,   0.037307124584913254,  -0.100666649639606476,   0.117065563797950745,   0.115150533616542816,   0.132082998752593994,  -0.038877360522747040,  -0.065815389156341553,   0.042313285171985626,   0.010544959455728531,  -0.065847121179103851,   0.009079040028154850,   0.061674389988183975,   0.181839078664779663,  -0.005560427904129028,   0.184549495577812195,   0.010073952376842499,   0.106056474149227142,   0.015092768706381321,   0.141270324587821960,   0.105699539184570312,
		   0.128898099064826965,   0.124238327145576477,   0.050462163984775543,  -0.030259065330028534,  -0.110411860048770905,   0.123552225530147552,  -0.104246646165847778,  -0.036104541271924973,  -0.118612110614776611,   0.002345963846892118,   0.017022864893078804,  -0.141929522156715393,  -0.020373057574033737,  -0.082000032067298889,   0.029267329722642899,  -0.120459564030170441,  -0.073053449392318726,  -0.065243035554885864,  -0.140639901161193848,  -0.084501989185810089,   0.070236966013908386,  -0.110854208469390869,  -0.145543664693832397,  -0.000736591638997197,  -0.066593483090400696,  -0.037267044186592102,   0.005167576018720865,  -0.032733879983425140,   0.096495173871517181,  -0.167109951376914978,   0.046177793294191360,  -0.117238432168960571,   0.002961903112009168,  -0.029408218339085579,  -0.119717128574848175,   0.006551254540681839,   0.083507694303989410,  -0.113434068858623505,  -0.097433097660541534,  -0.132867112755775452,   0.006123237777501345,  -0.124464377760887146,  -0.010065615177154541,   0.090073868632316589,   0.031142009422183037,  -0.066588543355464935,   0.016314439475536346,  -0.039011213928461075,
		   0.120293177664279938,  -0.002141603734344244,  -0.072570346295833588,   0.048356480896472931,  -0.078126892447471619,   0.016701985150575638,  -0.035704832524061203,   0.006933860015124083,   0.115474447607994080,  -0.102332174777984619,  -0.123543389141559601,  -0.115159049630165100,  -0.050539046525955200,   0.114713788032531738,  -0.025206796824932098,   0.076494187116622925,   0.030388297513127327,  -0.175754338502883911,  -0.045652098953723907,   0.026883758604526520,   0.087543271481990814,   0.034141108393669128,   0.034351691603660583,  -0.190530136227607727,   0.047381889075040817,  -0.048913586884737015,  -0.070324838161468506,  -0.152916848659515381,   0.024577591568231583,  -0.128713458776473999,  -0.034567978233098984,   0.102154888212680817,  -0.006030079443007708,  -0.010874248109757900,   0.027125759050250053,   0.059681676328182220,  -0.017526458948850632,  -0.088303007185459137,  -0.055114276707172394,   0.058118354529142380,   0.058812458068132401,  -0.002357033314183354,  -0.029667522758245468,   0.005915432237088680,  -0.123727075755596161,  -0.057681750506162643,  -0.081371136009693146,  -0.230896666646003723,
		  -0.010940249077975750,   0.102701120078563690,  -0.091777190566062927,  -0.093189977109432220,  -0.076448604464530945,   0.042494408786296844,   0.061926953494548798,   0.072122834622859955,  -0.042916599661111832,   0.040159467607736588,   0.003948521334677935,  -0.038303494453430176,   0.144594699144363403,  -0.135234326124191284,   0.074067637324333191,   0.064710043370723724,   0.096129126846790314,   0.223238021135330200,   0.034246362745761871,  -0.088947609066963196,   0.069960989058017731,   0.059509243816137314,   0.077478229999542236,   0.202306091785430908,   0.064793959259986877,   0.026784932240843773,   0.024330811575055122,   0.103965744376182556,  -0.081856206059455872,   0.048960607498884201,  -0.060131989419460297,   0.044010978192090988,  -0.097675606608390808,   0.043541885912418365,   0.059316124767065048,   0.023811757564544678,  -0.029534677043557167,   0.166268259286880493,   0.039482410997152328,  -0.068709522485733032,   0.096354544162750244,   0.003284036414697766,   0.177390098571777344,   0.011949460953474045,   0.020460603758692741,   0.102359600365161896,  -0.052287597209215164,   0.229863315820693970,
		   0.096316531300544739,  -0.080851703882217407,  -0.046239107847213745,   0.114093959331512451,  -0.124952830374240875,  -0.045328881591558456,  -0.060570400208234787,   0.090152353048324585,   0.050348863005638123,  -0.090240649878978729,   0.133677884936332703,   0.035155177116394043,   0.129061669111251831,   0.061982978135347366,   0.077379725873470306,  -0.118462115526199341,   0.059284754097461700,  -0.071322061121463776,  -0.071809753775596619,   0.025576014071702957,  -0.024180768057703972,  -0.120439149439334869,  -0.017617400735616684,  -0.137085303664207458,   0.025066077709197998,   0.064644925296306610,   0.004413934890180826,   0.078900054097175598,  -0.150382161140441895,  -0.118795752525329590,  -0.086484551429748535,   0.001725527108646929,  -0.064720645546913147,  -0.112521171569824219,   0.004284078255295753,  -0.016612621024250984,  -0.017587099224328995,   0.064029507339000702,  -0.034285094588994980,  -0.097471684217453003,  -0.021087396889925003,  -0.198774397373199463,  -0.170317232608795166,  -0.042397290468215942,  -0.075236074626445770,  -0.007897144183516502,  -0.129411697387695312,  -0.240784183144569397,
		  -0.068693175911903381,  -0.152719885110855103,   0.034742776304483414,  -0.054102681577205658,  -0.123917698860168457,   0.009902857244014740,  -0.051435213536024094,   0.000823445734567940,   0.005546332802623510,  -0.106277257204055786,  -0.185755908489227295,  -0.149505257606506348,  -0.047047160565853119,  -0.016621906310319901,   0.072853676974773407,   0.044487684965133667,  -0.164438009262084961,   0.023337850347161293,   0.080594524741172791,  -0.001179278711788356,   0.056010734289884567,  -0.073221802711486816,  -0.062964893877506256,   0.020386690273880959,  -0.077775940299034119,   0.093178883194923401,  -0.067702710628509521,  -0.035308111459016800,  -0.019902685657143593,   0.054094854742288589,   0.025895839557051659,   0.075145907700061798,   0.084723487496376038,  -0.163303002715110779,  -0.060194134712219238,   0.024162424728274345,   0.128555119037628174,  -0.041835252195596695,  -0.056393541395664215,  -0.116613805294036865,   0.061820093542337418,  -0.048893291503190994,  -0.088800728321075439,   0.098410882055759430,  -0.145915076136589050,  -0.069819889962673187,  -0.025107713416218758,   0.094053342938423157,
		  -0.034060001373291016,   0.100248888134956360,  -0.088871091604232788,   0.162616610527038574,   0.065026909112930298,   0.120017208158969879,  -0.077731117606163025,  -0.102662153542041779,   0.046176232397556305,   0.026897311210632324,   0.008736389689147472,   0.107412695884704590,   0.120279371738433838,   0.080312676727771759,  -0.095418445765972137,   0.111696943640708923,   0.067572236061096191,   0.115175068378448486,   0.113634318113327026,   0.087253503501415253,   0.156915679574012756,  -0.041231889277696609,   0.027391903102397919,   0.197545692324638367,  -0.028183085843920708,  -0.008424596861004829,  -0.101120389997959137,   0.156745016574859619,   0.003654502099379897,  -0.099220432341098785,   0.009527455084025860,   0.074139356613159180,  -0.054379023611545563,  -0.045038964599370956,   0.044168733060359955,   0.035389523953199387,  -0.053527869284152985,  -0.075324006378650665,   0.043088927865028381,   0.049118231981992722,   0.206689566373825073,   0.204870909452438354,  -0.075471952557563782,  -0.004739336203783751,   0.152917891740798950,   0.033107556402683258,   0.045159753412008286,   0.109645910561084747,
		   0.067439131438732147,  -0.012188101187348366,   0.000127011764561757,   0.078674696385860443,  -0.006813048385083675,  -0.065696693956851959,  -0.026315506547689438,  -0.053866602480411530,   0.095779046416282654,  -0.109925717115402222,  -0.094104118645191193,  -0.052458446472883224,   0.040162842720746994,   0.099848486483097076,   0.106022208929061890,  -0.067158438265323639,  -0.092028401792049408,   0.105054505169391632,   0.111222229897975922,  -0.054378502070903778,  -0.090924449265003204,   0.103816635906696320,   0.124502055346965790,   0.086241744458675385,  -0.067425891757011414,  -0.014094199053943157,   0.100845962762832642,   0.119730465114116669,   0.029485283419489861,  -0.098568670451641083,  -0.053786370903253555,  -0.042238548398017883,   0.144543856382369995,  -0.108184859156608582,  -0.005366817582398653,  -0.033822044730186462,  -0.028690213337540627,   0.018213886767625809,   0.147563084959983826,  -0.072078876197338104,   0.180306077003479004,   0.143634334206581116,   0.088150672614574432,   0.076768346130847931,   0.013765043579041958,   0.125514790415763855,  -0.012692230753600597,   0.132630601525306702,
		  -0.086589038372039795,   0.121931649744510651,   0.006931612268090248,   0.155580222606658936,  -0.066675372421741486,   0.117214292287826538,   0.182318136096000671,   0.084984920918941498,   0.084016427397727966,  -0.051503822207450867,   0.084675312042236328,   0.139528840780258179,  -0.063823327422142029,   0.134409502148628235,  -0.067180819809436798,  -0.071578912436962128,  -0.062890738248825073,   0.016149390488862991,  -0.015326544642448425,   0.002560165477916598,   0.039007104933261871,   0.068015903234481812,   0.118125915527343750,   0.164498552680015564,   0.055445555597543716,  -0.054497223347425461,  -0.088181190192699432,   0.008194446563720703,  -0.081263095140457153,   0.057834673672914505,  -0.099366217851638794,  -0.101285323500633240,   0.061270937323570251,   0.027885051444172859,   0.104570224881172180,   0.125834017992019653,  -0.109009884297847748,   0.045078132301568985,   0.015835622325539589,  -0.053071394562721252,   0.001602918258868158,  -0.110986731946468353,  -0.007422635797411203,   0.171807423233985901,   0.036849308758974075,  -0.048693105578422546,  -0.065864466130733490,  -0.021894836798310280,
		  -0.062627427279949188,   0.046400040388107300,  -0.099631354212760925,   0.170854181051254272,   0.065346270799636841,   0.153509527444839478,   0.031337745487689972,   0.144349336624145508,  -0.056635800749063492,   0.014625864103436470,  -0.100581362843513489,   0.090206891298294067,  -0.014655879698693752,  -0.020209589973092079,  -0.009355862624943256,  -0.113494470715522766,   0.083413422107696533,   0.030791224911808968,   0.087018646299839020,   0.111804388463497162,   0.187462002038955688,   0.117292769253253937,   0.057854387909173965,   0.217651143670082092,   0.185749933123588562,   0.052928056567907333,   0.156303808093070984,   0.090856224298477173,   0.166534647345542908,   0.145625337958335876,   0.017688117921352386,   0.071570746600627899,   0.150549262762069702,  -0.021870594471693039,  -0.011971394531428814,   0.041129853576421738,  -0.038733337074518204,  -0.000429674430051818,  -0.080038353800773621,  -0.055491648614406586,   0.077745102345943451,   0.116864688694477081,  -0.040603388100862503,  -0.020051939412951469,  -0.068375989794731140,   0.149047121405601501,   0.085977703332901001,  -0.022261887788772583,
	};
	static const double bias01[]=
	{
		   0.067900858819484711,   0.071879133582115173,   0.036661140620708466,  -0.013055714778602123,   0.130241245031356812,  -0.028642373159527779,   0.172458752989768982,   0.058011192828416824,  -0.042439505457878113,  -0.024122206494212151,  -0.022777885198593140,   0.002446191851049662,   0.011639439500868320,   0.097554810345172882,   0.086937569081783295,   0.021169373765587807,   0.124953605234622955,   0.059645477682352066,  -0.064095877110958099,   0.035594906657934189,   0.023782385513186455,  -0.045811995863914490,  -0.023131631314754486,   0.142123222351074219,   0.062571741640567780,   0.096727892756462097,   0.112990103662014008,   0.133822530508041382,   0.053090732544660568,  -0.110916793346405029,   0.089179120957851410,   0.112084470689296722,   0.010125493630766869,   0.089283987879753113,   0.158927887678146362,   0.094365321099758148,   0.074035458266735077,  -0.001835534465499222,  -0.010584095492959023,   0.091251291334629059,   0.098062194883823395,   0.091176688671112061,   0.164215654134750366,   0.041398145258426666,   0.059095900505781174,   0.008346536196768284,  -0.125438436865806580,   0.068651378154754639,
	};
	static const double weight02[]=
	{
		   0.021126762032508850,   0.105141557753086090,   0.091657668352127075,  -0.064708121120929718,   0.062814801931381226,   0.141434580087661743,   0.122931987047195435,   0.120731331408023834,  -0.160610899329185486,  -0.049528561532497406,  -0.140563532710075378,   0.071359202265739441,  -0.084239564836025238,  -0.020661864429712296,  -0.088772565126419067,  -0.069725140929222107,  -0.035800810903310776,  -0.084355771541595459,   0.145795464515686035,  -0.102514550089836121,   0.005344205070286989,   0.051986239850521088,   0.085222780704498291,   0.019230816513299942,   0.005756110884249210,  -0.024351216852664948,   0.057740744203329086,  -0.038776624947786331,   0.110151886940002441,  -0.030698662623763084,   0.153917074203491211,  -0.005896988790482283,  -0.095950923860073090,   0.145026504993438721,  -0.041324835270643234,   0.058092519640922546,   0.041094429790973663,   0.094418190419673920,  -0.140496715903282166,  -0.102310746908187866,  -0.126207470893859863,  -0.098030760884284973,  -0.076825127005577087,  -0.013179335743188858,  -0.062558740377426147,   0.002648606197908521,  -0.002344511449337006,  -0.012416548095643520,
		   0.136936590075492859,   0.047367002815008163,  -0.107752881944179535,   0.138286650180816650,  -0.004999152850359678,   0.076485618948936462,   0.057749480009078979,   0.044343519955873489,   0.108011677861213684,  -0.026931680738925934,   0.043040428310632706,   0.102730534970760345,  -0.037042807787656784,   0.082963295280933380,   0.069674849510192871,   0.009576144628226757,   0.103436931967735291,   0.129953548312187195,   0.162510290741920471,   0.120922461152076721,  -0.067539013922214508,  -0.094700314104557037,  -0.034635722637176514,   0.046048820018768311,   0.026840355247259140,   0.053822215646505356,   0.052835475653409958,   0.115600489079952240,  -0.062951669096946716,   0.133084565401077271,  -0.122072651982307434,  -0.050127968192100525,   0.148575469851493835,   0.053791344165802002,   0.100940510630607605,   0.058729834854602814,   0.137353971600532532,  -0.049330350011587143,   0.075033113360404968,   0.081495329737663269,  -0.006786639802157879,   0.146346360445022583,  -0.045134872198104858,  -0.093136884272098541,   0.137642756104469299,  -0.046657294034957886,  -0.072750203311443329,   0.138431966304779053,
		   0.094759382307529449,  -0.057061418890953064,   0.069258622825145721,   0.136646345257759094,  -0.049993071705102921,   0.049710504710674286,   0.052540943026542664,  -0.050816420465707779,  -0.026849683374166489,   0.096889935433864594,   0.123131915926933289,  -0.082308828830718994,   0.126766949892044067,  -0.011112492531538010,   0.105015501379966736,   0.043285466730594635,  -0.059358924627304077,   0.055021207779645920,  -0.116816632449626923,   0.000977100571617484,  -0.089731588959693909,  -0.033560443669557571,   0.079758994281291962,   0.132531404495239258,  -0.007542323321104050,  -0.106994457542896271,   0.144283011555671692,   0.039884567260742188,  -0.078582547605037689,   0.032327942550182343,  -0.147712066769599915,   0.100545585155487061,  -0.018974747508764267,   0.040744058787822723,   0.075207687914371490,   0.087101347744464874,   0.069971881806850433,  -0.161904320120811462,  -0.032285723835229874,   0.089539453387260437,   0.029954902827739716,  -0.027351161465048790,  -0.005523289088159800,   0.091511964797973633,  -0.085726395249366760,  -0.143258899450302124,   0.122713252902030945,   0.124019682407379150,
		  -0.011938591487705708,  -0.039746928960084915,  -0.107510246336460114,   0.047443114221096039,   0.097815312445163727,   0.123302884399890900,   0.017450118437409401,   0.160956159234046936,   0.143682256340980530,   0.018552552908658981,  -0.010967384092509747,  -0.046303186565637589,   0.112350732088088989,  -0.130038484930992126,   0.153891503810882568,  -0.036674965173006058,   0.071140468120574951,   0.034252185374498367,   0.010188030079007149,   0.073024362325668335,  -0.030567249283194542,   0.070561952888965607,   0.165562093257904053,  -0.062911182641983032,   0.164435163140296936,  -0.090523101389408112,   0.033579140901565552,  -0.010949698276817799,  -0.059541590511798859,   0.089651554822921753,   0.114863276481628418,  -0.045101027935743332,  -0.000713783432729542,  -0.119571477174758911,   0.049943733960390091,  -0.010033607482910156,   0.099968954920768738,  -0.029153704643249512,   0.022186413407325745,   0.125959202647209167,   0.157067716121673584,  -0.103813596069812775,   0.038828879594802856,  -0.089359045028686523,   0.009112430736422539,  -0.092416450381278992,  -0.068803712725639343,  -0.073023036122322083,
		   0.165446430444717407,   0.008917693980038166,  -0.007428215816617012,   0.051093000918626785,  -0.068848900496959686,  -0.105205044150352478,   0.053133074194192886,  -0.084732435643672943,   0.132871508598327637,   0.017289133742451668,   0.102503836154937744,   0.139352366328239441,  -0.077797010540962219,  -0.048905521631240845,   0.114056453108787537,   0.135934010148048401,  -0.071942105889320374,  -0.061616390943527222,  -0.108703248202800751,   0.011152753606438637,   0.091040119528770447,   0.081088364124298096,   0.155563533306121826,  -0.141225323081016541,   0.184667974710464478,  -0.002441769465804100,   0.048117168247699738,  -0.086600363254547119,   0.112159192562103271,  -0.071875810623168945,   0.018692076206207275,   0.071988135576248169,   0.147207498550415039,   0.144361615180969238,   0.052818071097135544,   0.173867389559745789,   0.032382279634475708,   0.082369156181812286,   0.037670861929655075,   0.121987275779247284,   0.029465913772583008,  -0.152347505092620850,   0.043861400336027145,   0.126382112503051758,   0.022111961618065834,   0.067528091371059418,   0.126785442233085632,  -0.116488739848136902,
		  -0.056999448686838150,  -0.131214812397956848,   0.081511050462722778,  -0.073164962232112885,  -0.046026468276977539,   0.079361386597156525,   0.074496574699878693,  -0.072999939322471619,   0.083019010722637177,  -0.056428894400596619,   0.030438864603638649,   0.069286070764064789,  -0.122295066714286804,   0.125378504395484924,   0.081926241517066956,   0.035301141440868378,  -0.016461640596389771,  -0.068770639598369598,  -0.054687321186065674,  -0.107938498258590698,   0.129655003547668457,  -0.059303313493728638,  -0.027271566912531853,   0.132445022463798523,  -0.121222309768199921,   0.036349553614854813,   0.120426669716835022,   0.008868885226547718,   0.179841205477714539,   0.126967683434486389,   0.049750939011573792,   0.016387755051255226,   0.139361158013343811,   0.152363821864128113,  -0.032674361020326614,  -0.040258754044771194,   0.108649395406246185,  -0.067041210830211639,   0.053917877376079559,   0.161966651678085327,   0.090787157416343689,   0.097666539251804352,  -0.154983103275299072,   0.063159696757793427,   0.147221818566322327,  -0.059063781052827835,   0.053801499307155609,   0.140154555439949036,
		   0.014434848912060261,   0.133495911955833435,  -0.059460457414388657,  -0.031433828175067902,   0.162631541490554810,   0.115572363138198853,   0.137456312775611877,  -0.017799979075789452,  -0.044803243130445480,   0.017987348139286041,   0.122928671538829803,  -0.004263755865395069,   0.181908354163169861,   0.051296945661306381,  -0.052918300032615662,   0.061815969645977020,   0.106528185307979584,   0.008653544820845127,   0.135162413120269775,   0.075017735362052917,   0.066204622387886047,   0.157050222158432007,   0.134208679199218750,   0.150737255811691284,  -0.110770538449287415,   0.062868334352970123,   0.119821585714817047,   0.120751120150089264,   0.193644478917121887,  -0.077504917979240417,   0.053725924342870712,   0.151254400610923767,  -0.065066657960414886,  -0.051237482577562332,  -0.134956538677215576,  -0.110256992280483246,   0.134531348943710327,  -0.061325747519731522,   0.131171211600303650,   0.145234808325767517,  -0.013392973691225052,   0.105524100363254547,  -0.081176102161407471,  -0.092343486845493317,  -0.076465450227260590,   0.111178971827030182,   0.135042563080787659,   0.048335853964090347,
		   0.000281111977528781,  -0.151032179594039917,  -0.106746904551982880,   0.063855230808258057,   0.037879124283790588,  -0.041821125894784927,   0.082996025681495667,  -0.055958181619644165,   0.064098119735717773,  -0.093030236661434174,  -0.004013733007013798,  -0.124129898846149445,  -0.003149773227050900,  -0.052897375077009201,  -0.133817404508590698,  -0.021661005914211273,   0.102101676166057587,   0.009844144806265831,   0.173735931515693665,  -0.092855371534824371,   0.073647029697895050,  -0.003583163488656282,   0.030852725729346275,   0.112078517675399780,  -0.115987636148929596,  -0.134791612625122070,  -0.112571142613887787,   0.021895457059144974,  -0.061123486608266830,  -0.094795562326908112,   0.066675715148448944,  -0.132910460233688354,  -0.044499170035123825,  -0.084898836910724640,   0.073078624904155731,  -0.150702595710754395,   0.103192858397960663,  -0.082945972681045532,   0.117068417370319366,  -0.066573478281497955,  -0.140665128827095032,   0.175717756152153015,   0.054170202463865280,  -0.082279562950134277,   0.118960045278072357,   0.029341911897063255,   0.101658925414085388,  -0.129166349768638611,
		   0.059193495661020279,  -0.067966878414154053,   0.041426554322242737,  -0.020781179890036583,   0.033309370279312134,  -0.051610648632049561,   0.099361196160316467,  -0.020929213613271713,   0.168529555201530457,   0.025112139061093330,   0.008237293921411037,  -0.030881628394126892,   0.048484392464160919,  -0.036183021962642670,   0.129986032843589783,  -0.067913427948951721,  -0.151106461882591248,   0.087905243039131165,   0.058644663542509079,   0.004384169820696115,   0.003534861607477069,   0.190271139144897461,   0.065579265356063843,  -0.017405927181243896,   0.049022857099771500,   0.086780853569507599,  -0.112585015594959259,   0.062596902251243591,  -0.119606994092464447,   0.139335244894027710,  -0.139928624033927917,   0.124780833721160889,   0.069375202059745789,  -0.021184705197811127,   0.094691075384616852,   0.134561091661453247,   0.057644657790660858,  -0.135468855500221252,  -0.022586198523640633,   0.026095557957887650,   0.060215376317501068,   0.036811795085668564,  -0.056788656860589981,  -0.116147346794605255,  -0.039675433188676834,   0.100654631853103638,  -0.054034899920225143,  -0.091113045811653137,
		  -0.047583971172571182,  -0.063555300235748291,  -0.033786129206418991,  -0.087441526353359222,   0.078737325966358185,   0.013096633367240429,   0.007654680870473385,   0.044080123305320740,   0.108331508934497833,   0.010842467658221722,  -0.053082630038261414,  -0.113976635038852692,  -0.032701831310987473,   0.218452081084251404,   0.071572959423065186,  -0.002060924656689167,  -0.079950548708438873,  -0.167368888854980469,  -0.062344014644622803,   0.097904317080974579,   0.117283433675765991,  -0.015021083876490593,  -0.122948445379734039,   0.164963349699974060,   0.054692223668098450,  -0.011403086595237255,   0.050677496939897537,  -0.101114012300968170,   0.050822105258703232,   0.004617163911461830,   0.114709101617336273,  -0.075195036828517914,  -0.146873235702514648,   0.059887051582336426,  -0.094472564756870270,  -0.079630389809608459,   0.172853589057922363,   0.032074283808469772,   0.155297622084617615,  -0.008955208584666252,   0.104203984141349792,   0.055183507502079010,  -0.160230994224548340,   0.022422013804316521,   0.188094228506088257,   0.125173732638359070,   0.063564889132976532,   0.040683802217245102,
		   0.067204780876636505,   0.104626037180423737,  -0.105626478791236877,  -0.062730371952056885,  -0.139213532209396362,  -0.026403443887829781,   0.119834870100021362,  -0.088980205357074738,  -0.048606958240270615,   0.134430438280105591,   0.085680842399597168,  -0.133606985211372375,  -0.119703590869903564,  -0.141122788190841675,  -0.064986944198608398,  -0.070357330143451691,  -0.010982462204992771,   0.087173990905284882,   0.001987806288525462,  -0.130599126219749451,   0.104714095592498779,  -0.041898187249898911,  -0.139152318239212036,  -0.026761798188090324,  -0.052268266677856445,   0.020026022568345070,   0.042055908590555191,   0.110527880489826202,  -0.104160316288471222,  -0.069329574704170227,  -0.120063908398151398,  -0.103133760392665863,   0.028511919081211090,  -0.056104041635990143,   0.116285458207130432,  -0.037009317427873611,  -0.158348008990287781,  -0.097092084586620331,  -0.125459432601928711,  -0.117373310029506683,  -0.143585458397865295,  -0.110433518886566162,   0.143926039338111877,   0.026623910292983055,   0.000307589332805946,  -0.166156813502311707,   0.055279098451137543,  -0.044268634170293808,
		   0.056761227548122406,   0.038553379476070404,  -0.001723671914078295,  -0.061825569719076157,  -0.071452178061008453,  -0.063178382813930511,  -0.097118265926837921,  -0.107954733073711395,  -0.168664202094078064,   0.025331478565931320,  -0.032434485852718353,  -0.026951344683766365,  -0.153892219066619873,   0.110425308346748352,   0.019017795100808144,   0.200045317411422729,   0.180630818009376526,   0.028238689526915550,   0.179766312241554260,  -0.051762085407972336,   0.132045149803161621,  -0.136945962905883789,  -0.058949921280145645,   0.061433285474777222,  -0.167379125952720642,   0.056959580630064011,   0.039806243032217026,   0.117463603615760803,   0.084294036030769348,  -0.168843105435371399,  -0.097407653927803040,  -0.034530986100435257,  -0.076040826737880707,   0.136640593409538269,  -0.079856134951114655,   0.088552899658679962,   0.072477489709854126,  -0.113131694495677948,   0.049648817628622055,   0.097412280738353729,   0.013438469730317593,   0.211457550525665283,  -0.010256843641400337,   0.059229176491498947,   0.064717441797256470,   0.187682464718818665,  -0.035922933369874954,   0.073251925408840179,
		  -0.015101339668035507,   0.122329726815223694,   0.020290756598114967,  -0.052222795784473419,   0.169143348932266235,   0.020123364403843880,  -0.058215979486703873,  -0.051749616861343384,  -0.036108344793319702,   0.015037938021123409,   0.056923750787973404,   0.075048655271530151,   0.008903102949261665,   0.027830144390463829,  -0.013069927692413330,   0.008130421862006187,  -0.088207930326461792,   0.011317782104015350,  -0.111221157014369965,   0.081827290356159210,  -0.027587983757257462,   0.131400063633918762,  -0.075957432389259338,   0.029323969036340714,  -0.010635511949658394,  -0.088915944099426270,  -0.027363434433937073,   0.056816432625055313,  -0.026301296427845955,   0.050037872046232224,  -0.129798963665962219,  -0.114729195833206177,   0.013215465471148491,  -0.127962768077850342,  -0.055810205638408661,   0.082791492342948914,   0.070667475461959839,   0.006518759764730930,  -0.005757082719355822,   0.067328028380870819,  -0.038136754184961319,   0.022692216560244560,   0.081555485725402832,  -0.065291665494441986,  -0.041524428874254227,  -0.042461782693862915,   0.124411314725875854,   0.077943749725818634,
		  -0.054339554160833359,  -0.062144454568624496,  -0.087657734751701355,   0.071278758347034454,  -0.093709468841552734,   0.127312913537025452,  -0.020097827538847923,   0.126996919512748718,   0.112581200897693634,   0.076913535594940186,  -0.007988418452441692,  -0.078113146126270294,   0.054611638188362122,  -0.151647925376892090,   0.127083986997604370,  -0.109376884996891022,  -0.111405059695243835,   0.111807040870189667,  -0.048292025923728943,   0.082656726241111755,  -0.004160312470048666,  -0.018455008044838905,   0.129083797335624695,  -0.116962544620037079,   0.148480907082557678,   0.182608038187026978,  -0.097949318587779999,  -0.075379930436611176,   0.112133741378784180,   0.062460947781801224,  -0.021299436688423157,   0.155414775013923645,   0.172593310475349426,  -0.046590313315391541,   0.070802070200443268,   0.058703757822513580,   0.105425938963890076,   0.112005814909934998,   0.036931484937667847,   0.076242759823799133,   0.023237563669681549,  -0.045972291380167007,   0.169654607772827148,  -0.023201597854495049,  -0.039741702377796173,  -0.078367151319980621,  -0.065184481441974640,  -0.118729084730148315,
		   0.073013268411159515,   0.198791354894638062,   0.081127822399139404,   0.167508825659751892,   0.096329323947429657,   0.074434846639633179,  -0.059431534260511398,   0.133307620882987976,   0.084181614220142365,   0.042327549308538437,   0.000332375173456967,   0.127597078680992126,  -0.091078259050846100,  -0.173805400729179382,   0.118738859891891479,   0.098884798586368561,   0.014450115151703358,   0.077346295118331909,  -0.140922620892524719,   0.025763483718037605,  -0.015591699630022049,   0.044803190976381302,   0.165047198534011841,   0.123639710247516632,   0.145601585507392883,  -0.041679050773382187,   0.051072057336568832,   0.045004330575466156,   0.030522810295224190,   0.137594938278198242,   0.124514564871788025,   0.166050538420677185,  -0.055268742144107819,   0.046070657670497894,   0.028474375605583191,   0.139143541455268860,   0.001027143676765263,   0.003245532279834151,   0.010511703789234161,  -0.102521792054176331,   0.177908331155776978,  -0.139952287077903748,  -0.019229540601372719,  -0.105063289403915405,  -0.086219556629657745,  -0.010262533091008663,   0.026206709444522858,   0.162782251834869385,
		  -0.061893377453088760,  -0.023104904219508171,   0.054932761937379837,  -0.095607392489910126,   0.070395067334175110,  -0.134690135717391968,  -0.134852349758148193,   0.049533858895301819,   0.086200781166553497,  -0.114373005926609039,   0.124075330793857574,  -0.129262566566467285,  -0.090420141816139221,   0.091003209352493286,   0.003164146328344941,  -0.024523831903934479,  -0.103574745357036591,  -0.112682759761810303,  -0.113554254174232483,  -0.037543933838605881,  -0.023795776069164276,  -0.122974298894405365,   0.021778166294097900,   0.023030182346701622,   0.107404530048370361,  -0.007483730558305979,  -0.164071276783943176,  -0.148599237203598022,  -0.044307593256235123,  -0.068313032388687134,  -0.040181118994951248,  -0.093661218881607056,   0.003880741074681282,   0.028119025751948357,   0.051244262605905533,  -0.012296628206968307,  -0.174771755933761597,   0.031242774799466133,   0.118348106741905212,  -0.042200028896331787,   0.083098739385604858,  -0.072111003100872040,  -0.051505334675312042,  -0.144641369581222534,  -0.063987098634243011,   0.058577839285135269,   0.128952160477638245,  -0.103607371449470520,
		   0.046772558242082596,   0.129957884550094604,   0.131594806909561157,   0.127831280231475830,   0.041729688644409180,   0.034496150910854340,   0.035174041986465454,  -0.090811699628829956,   0.111599490046501160,  -0.025459581986069679,  -0.067828647792339325,   0.091848619282245636,  -0.006900950800627470,   0.031066562980413437,  -0.078052237629890442,  -0.141246676445007324,   0.099435664713382721,   0.175640508532524109,  -0.159988880157470703,  -0.040315300226211548,  -0.020724333822727203,  -0.038281764835119247,   0.050126869231462479,  -0.045085765421390533,   0.148250475525856018,   0.043676923960447311,   0.104818366467952728,   0.045850444585084915,   0.095097035169601440,  -0.122737318277359009,   0.113208815455436707,  -0.085085086524486542,   0.064924784004688263,  -0.118695415556430817,   0.098674297332763672,   0.122958801686763763,  -0.021148752421140671,  -0.083815209567546844,   0.103483162820339203,   0.159750923514366150,   0.160382136702537537,  -0.085844688117504120,   0.052576202899217606,  -0.091213323175907135,   0.135399743914604187,   0.077726125717163086,   0.022997906431555748,   0.065590985119342804,
		   0.165036842226982117,  -0.012653155252337456,   0.128686413168907166,   0.176642894744873047,   0.008412947878241539,   0.129169717431068420,   0.119442194700241089,   0.054500024765729904,  -0.067759767174720764,   0.043649289757013321,   0.127202734351158142,   0.155186280608177185,   0.088992565870285034,  -0.167911306023597717,  -0.000439200783148408,   0.021935284137725830,  -0.111970618367195129,   0.175138652324676514,   0.089561887085437775,   0.107295773923397064,  -0.014946031384170055,   0.114229820668697357,   0.106724850833415985,   0.071718975901603699,   0.127452522516250610,  -0.065437063574790955,  -0.110152907669544220,   0.088285170495510101,  -0.062851823866367340,  -0.005866240710020065,  -0.006833439227193594,   0.146337404847145081,  -0.084321826696395874,  -0.013171047903597355,  -0.028002945706248283,   0.024787217378616333,  -0.000651251990348101,   0.097160801291465759,   0.077967897057533264,   0.147366434335708618,   0.010603664442896843,  -0.085584878921508789,   0.159551680088043213,  -0.028058893978595734,  -0.057280693203210831,  -0.081776194274425507,   0.135853931307792664,  -0.018022352829575539,
		   0.142380639910697937,  -0.036283265799283981,   0.098404787480831146,  -0.069388240575790405,  -0.129475533962249756,  -0.053368043154478073,   0.082063972949981689,   0.054409880191087723,   0.171199247241020203,   0.039782620966434479,  -0.037842251360416412,  -0.079157665371894836,   0.153778761625289917,   0.039347562938928604,   0.089771777391433716,   0.091890662908554077,  -0.167645037174224854,  -0.113526366651058197,  -0.096077658236026764,   0.104531601071357727,  -0.081178084015846252,  -0.077187821269035339,  -0.064332909882068634,  -0.138829395174980164,   0.043065629899501801,   0.015153140760958195,  -0.023971334099769592,  -0.055298209190368652,  -0.052887376397848129,  -0.033278308808803558,  -0.051230583339929581,  -0.090484023094177246,   0.158628836274147034,   0.130207926034927368,  -0.078144729137420654,   0.135258272290229797,  -0.098763749003410339,   0.121495708823204041,  -0.013966713100671768,  -0.090620070695877075,   0.133268073201179504,  -0.013640221208333969,   0.141054585576057434,   0.057175826281309128,  -0.187511414289474487,  -0.063111849129199982,  -0.014918257482349873,  -0.054020021110773087,
		  -0.084653213620185852,   0.112020052969455719,  -0.043368458747863770,  -0.086353778839111328,   0.058444313704967499,  -0.109095305204391479,   0.029969720169901848,   0.022931367158889771,  -0.008085991255939007,  -0.130122065544128418,   0.105311803519725800,  -0.024387300014495850,  -0.043507389724254608,   0.071496844291687012,  -0.013871303759515285,  -0.068409271538257599,   0.015939930453896523,   0.003200642997398973,  -0.010852163657546043,  -0.120563320815563202,  -0.066257715225219727,   0.040923785418272018,   0.169333428144454956,  -0.043533734977245331,   0.113220006227493286,   0.015246217139065266,  -0.094397649168968201,   0.093453034758567810,   0.026570351794362068,   0.103528335690498352,  -0.097594536840915680,  -0.120926611125469208,  -0.039173115044832230,  -0.104850001633167267,  -0.025969408452510834,  -0.065952718257904053,  -0.046798214316368103,   0.070945411920547485,  -0.038552418351173401,   0.009146320633590221,   0.029533080756664276,  -0.001505716471001506,  -0.034393761307001114,   0.093491844832897186,   0.050242852419614792,  -0.142080098390579224,   0.087838113307952881,  -0.121878638863563538,
		   0.076496012508869171,   0.031053753569722176,   0.084126435220241547,  -0.025673732161521912,  -0.051282204687595367,   0.080835305154323578,  -0.031552113592624664,  -0.008138731122016907,   0.143581464886665344,   0.043149545788764954,  -0.017944840714335442,  -0.031064478680491447,   0.092100381851196289,   0.011768574826419353,   0.033454403281211853,  -0.127526342868804932,  -0.031021462753415108,   0.138301402330398560,  -0.086370356380939484,   0.052128236740827560,   0.024643911048769951,   0.076497353613376617,   0.087728649377822876,   0.069067776203155518,   0.187269940972328186,  -0.089102491736412048,   0.048629283905029297,  -0.052247233688831329,   0.032722368836402893,   0.127136290073394775,   0.122770771384239197,   0.092644147574901581,   0.149144351482391357,   0.055456828325986862,   0.066222503781318665,   0.022897949442267418,   0.055022444576025009,   0.104472249746322632,  -0.038938812911510468,   0.145838052034378052,  -0.055754594504833221,  -0.104972854256629944,   0.112889237701892853,   0.111133717000484467,  -0.078221134841442108,  -0.055935464799404144,  -0.088828720152378082,   0.034781225025653839,
		  -0.038360498845577240,   0.041709665209054947,  -0.057589646428823471,   0.094784446060657501,   0.121868446469306946,  -0.042572520673274994,  -0.003900421084836125,   0.155465468764305115,   0.111682571470737457,  -0.030660625547170639,   0.191552519798278809,   0.095766291022300720,   0.181686311960220337,  -0.071780554950237274,  -0.024157697334885597,  -0.091105990111827850,  -0.077468052506446838,   0.072757191956043243,  -0.052855208516120911,   0.141224965453147888,   0.091966494917869568,   0.045330334454774857,   0.126017630100250244,   0.062274582684040070,   0.129114776849746704,   0.157572239637374878,   0.003777644829824567,   0.107810713350772858,   0.048850003629922867,  -0.025376565754413605,   0.041640475392341614,   0.106905587017536163,  -0.080980665981769562,  -0.135685533285140991,   0.020923178642988205,  -0.033745937049388885,  -0.064587146043777466,  -0.104304730892181396,  -0.083441980183124542,   0.079127341508865356,   0.021559871733188629,  -0.127527534961700439,  -0.073634654283523560,   0.118956044316291809,   0.127471566200256348,   0.030993802472949028,  -0.096162915229797363,  -0.016001420095562935,
		  -0.052890431135892868,  -0.141381353139877319,  -0.001745490357279778,  -0.072405517101287842,  -0.098485134541988373,  -0.073282197117805481,   0.150608345866203308,   0.181425064802169800,   0.055701699107885361,  -0.104302026331424713,   0.052236396819353104,   0.001947515876963735,  -0.080938115715980530,   0.219138577580451965,  -0.000629272661171854,  -0.068503223359584808,   0.186536133289337158,  -0.123588941991329193,   0.045427534729242325,   0.110740475356578827,   0.081649936735630035,  -0.045014500617980957,   0.031106108799576759,   0.152657911181449890,   0.007719034329056740,  -0.072204150259494781,   0.137016803026199341,   0.155199080705642700,  -0.012140562757849693,   0.074349150061607361,   0.202413648366928101,   0.040917448699474335,   0.060557805001735687,   0.169384181499481201,  -0.063566416501998901,  -0.144017457962036133,  -0.081892266869544983,   0.049811135977506638,  -0.082564398646354675,   0.023356556892395020,   0.073268502950668335,   0.120753273367881775,  -0.065392658114433289,   0.175828382372856140,   0.082423657178878784,   0.188227444887161255,  -0.059424333274364471,   0.062501631677150726,
		  -0.024820268154144287,   0.126492232084274292,   0.008184054866433144,   0.046060331165790558,   0.111563280224800110,   0.090502604842185974,   0.074818164110183716,  -0.027106391265988350,   0.131168738007545471,  -0.051943939179182053,   0.021107509732246399,   0.126992970705032349,   0.076313599944114685,  -0.015264013782143593,  -0.128231331706047058,   0.041294958442449570,   0.167183443903923035,  -0.028569672256708145,   0.026342192664742470,   0.134618684649467468,   0.147955223917961121,  -0.067328147590160370,  -0.134775027632713318,  -0.073933131992816925,   0.092812620103359222,  -0.020366808399558067,  -0.073994621634483337,   0.144493594765663147,   0.161871671676635742,  -0.007441086694598198,  -0.011429868638515472,  -0.111265189945697784,  -0.117347717285156250,   0.136710599064826965,   0.044084288179874420,   0.020019765943288803,  -0.011799694038927555,  -0.072010874748229980,  -0.050933599472045898,  -0.027620006352663040,  -0.128831386566162109,   0.114750832319259644,  -0.130279451608657837,   0.183685705065727234,   0.175186008214950562,   0.201059892773628235,  -0.029922287911176682,  -0.024804353713989258,
		  -0.035292241722345352,  -0.128577739000320435,  -0.090985536575317383,   0.113880693912506104,  -0.110036633908748627,  -0.168769448995590210,  -0.016134025529026985,  -0.031624618917703629,   0.111657038331031799,   0.035529427230358124,   0.143818110227584839,   0.040121294558048248,  -0.104289814829826355,  -0.035964813083410263,   0.056920353323221207,   0.043618239462375641,  -0.082906328141689301,  -0.136497035622596741,  -0.116645194590091705,   0.083020418882369995,   0.032809752970933914,   0.063179999589920044,   0.044887736439704895,   0.016925670206546783,  -0.065440267324447632,  -0.107965566217899323,  -0.087118595838546753,  -0.001640065689571202,  -0.122828528285026550,  -0.116733580827713013,  -0.153887063264846802,  -0.027475316077470779,   0.027898980304598808,  -0.066846378147602081,  -0.087596438825130463,   0.055003687739372253,  -0.094347499310970306,  -0.152322858572006226,  -0.003861777484416962,   0.086444310843944550,   0.045707996934652328,  -0.106863036751747131,   0.137837752699851990,   0.102254249155521393,   0.079965189099311829,  -0.106720604002475739,  -0.036064621061086655,  -0.000586110923904926,
		   0.147881418466567993,   0.180398494005203247,   0.062273468822240829,  -0.009067299775779247,  -0.034909423440694809,   0.115783907473087311,   0.108045585453510284,   0.118064217269420624,   0.039340306073427200,   0.055613752454519272,   0.004866470582783222,   0.082479260861873627,   0.111776396632194519,  -0.084770627319812775,   0.066301837563514709,   0.003934013191610575,  -0.076808929443359375,  -0.080529183149337769,   0.099833019077777863,   0.041477199643850327,  -0.087606430053710938,   0.131270915269851685,   0.114163681864738464,   0.138863623142242432,  -0.074987508356571198,   0.127278253436088562,  -0.052746370434761047,  -0.020936813205480576,  -0.053135585039854050,  -0.098287321627140045,  -0.105246089398860931,   0.102493911981582642,   0.074526168406009674,   0.122987873852252960,   0.013753926381468773,  -0.006242053117603064,  -0.082973219454288483,   0.076608024537563324,  -0.077696248888969421,   0.035697467625141144,  -0.049366533756256104,  -0.085799224674701691,   0.150203168392181396,   0.093371234834194183,  -0.111532710492610931,  -0.065176188945770264,   0.131956294178962708,   0.098120667040348053,
		   0.151576235890388489,  -0.062213197350502014,  -0.061025716364383698,  -0.062025293707847595,  -0.073856584727764130,  -0.096865430474281311,  -0.084758982062339783,   0.097624361515045166,  -0.154935270547866821,  -0.088034957647323608,  -0.088220581412315369,   0.016073195263743401,  -0.102404125034809113,   0.114415153861045837,  -0.104257941246032715,  -0.073380306363105774,   0.013210783712565899,   0.043990377336740494,   0.102712303400039673,   0.022564323619008064,   0.102500282227993011,  -0.129904001951217651,  -0.005659949965775013,  -0.076989531517028809,  -0.043275661766529083,  -0.032234318554401398,   0.114101581275463104,   0.053304441273212433,   0.127452373504638672,   0.060900919139385223,   0.090296037495136261,   0.002807332901284099,  -0.118247129023075104,  -0.029393067583441734,   0.091455534100532532,  -0.130830332636833191,  -0.019370885565876961,   0.056505311280488968,   0.114304065704345703,   0.157949686050415039,   0.005622474942356348,   0.036405730992555618,  -0.073421478271484375,   0.185169756412506104,  -0.076001711189746857,  -0.027069356292486191,   0.009472424164414406,   0.070814527571201324,
		   0.055960919708013535,   0.044282056391239166,   0.014328937046229839,  -0.021368375048041344,   0.102198973298072815,  -0.129615187644958496,   0.046089593321084976,  -0.087275646626949310,  -0.082754030823707581,  -0.047896053642034531,   0.102951057255268097,  -0.045158218592405319,  -0.027941731736063957,  -0.019420985132455826,  -0.106095127761363983,  -0.038567058742046356,  -0.029330667108297348,  -0.033184126019477844,   0.087764509022235870,  -0.062903866171836853,  -0.068723231554031372,  -0.106259867548942566,   0.010321511887013912,  -0.122744090855121613,  -0.083374954760074615,   0.124154999852180481,   0.112250477075576782,   0.031576398760080338,  -0.069182038307189941,   0.118298441171646118,  -0.119329802691936493,  -0.044441498816013336,  -0.000292470591375604,   0.034438971430063248,   0.054139234125614166,   0.037465676665306091,  -0.075478263199329376,   0.083343639969825745,   0.047149218618869781,  -0.014522632583975792,   0.110032722353935242,  -0.122962974011898041,  -0.052213169634342194,   0.096827410161495209,   0.058143172413110733,   0.031741652637720108,   0.160144686698913574,  -0.084364719688892365,
		   0.062668122351169586,   0.199686661362648010,   0.011047962121665478,   0.082063019275665283,  -0.021825518459081650,   0.129818484187126160,   0.088760904967784882,  -0.079701296985149384,   0.118872053921222687,  -0.057757489383220673,   0.072709791362285614,  -0.032696984708309174,   0.123648464679718018,  -0.158347755670547485,   0.126414984464645386,   0.096133649349212646,  -0.090726576745510101,   0.118823535740375519,  -0.028370391577482224,   0.154566287994384766,   0.079705782234668732,   0.086648128926753998,   0.006909514777362347,   0.079841189086437225,   0.193022310733795166,   0.107042215764522552,  -0.037376169115304947,  -0.025773085653781891,   0.115265361964702606,  -0.019753446802496910,   0.102815054357051849,  -0.054645098745822906,  -0.016894161701202393,   0.073792524635791779,   0.206018701195716858,  -0.075173869729042053,  -0.115027748048305511,   0.004309875424951315,  -0.121584884822368622,  -0.024639787152409554,   0.150417029857635498,  -0.063126116991043091,   0.157914221286773682,   0.129044890403747559,  -0.041684526950120926,  -0.031083408743143082,  -0.002071554772555828,   0.092184834182262421,
		   0.157354041934013367,  -0.066653609275817871,   0.035986278206110001,  -0.002376051852479577,   0.010453705675899982,  -0.052893001586198807,  -0.027124531567096710,  -0.042281318455934525,   0.073279447853565216,   0.033499088138341904,   0.100209549069404602,   0.109539695084095001,   0.027917798608541489,   0.153706789016723633,   0.057289510965347290,   0.055924396961927414,   0.154763609170913696,   0.143466472625732422,   0.015909383073449135,   0.106000445783138275,  -0.066349819302558899,   0.019700020551681519,   0.038173388689756393,   0.165044039487838745,  -0.109678350389003754,  -0.095704555511474609,  -0.044665709137916565,  -0.006822347175329924,   0.139291614294052124,  -0.058779440820217133,   0.008856075815856457,   0.079920969903469086,  -0.033336840569972992,   0.172449022531509399,   0.100256159901618958,  -0.121816910803318024,   0.172758713364601135,   0.006178404670208693,   0.185833632946014404,   0.142130032181739807,  -0.033267397433519363,  -0.064792193472385406,  -0.022444974631071091,   0.129965126514434814,  -0.063026957213878632,   0.117928519845008850,   0.061050117015838623,  -0.107148729264736176,
		   0.043923422694206238,   0.127284720540046692,   0.051899410784244537,  -0.061899702996015549,   0.008839807473123074,   0.122877888381481171,  -0.044629111886024475,   0.075561523437500000,   0.105006910860538483,   0.055507160723209381,   0.077129535377025604,  -0.129812806844711304,   0.106979109346866608,  -0.173474773764610291,   0.015967750921845436,  -0.055041432380676270,   0.072619535028934479,   0.107218854129314423,  -0.117650501430034637,   0.146323278546333313,  -0.087309390306472778,   0.087148904800415039,   0.022734615951776505,   0.126377329230308533,  -0.006189441308379173,   0.018061917275190353,  -0.087545327842235565,   0.025703476741909981,   0.110980778932571411,  -0.037112154066562653,   0.005156950093805790,   0.003203829983249307,   0.115381143987178802,  -0.020887007936835289,   0.118568584322929382,   0.039615955203771591,   0.049289505928754807,  -0.076105646789073944,  -0.121926873922348022,  -0.024147830903530121,   0.158794209361076355,   0.071673169732093811,   0.150127977132797241,   0.106825120747089386,  -0.129219576716423035,   0.068709574639797211,   0.114107951521873474,   0.044585928320884705,
		   0.071552425622940063,  -0.089962318539619446,   0.083249576389789581,   0.052046153694391251,  -0.034677989780902863,   0.061776321381330490,   0.107022784650325775,   0.120899014174938202,  -0.057911526411771774,   0.065788917243480682,   0.117967270314693451,  -0.050187535583972931,  -0.023049501702189445,  -0.040846548974514008,  -0.127170920372009277,   0.166529282927513123,   0.087354861199855804,   0.029206372797489166,   0.083609320223331451,   0.168167352676391602,   0.134832456707954407,  -0.115808762609958649,   0.005332456901669502,   0.124148622155189514,   0.132450237870216370,   0.080241508781909943,   0.191255122423171997,   0.072858117520809174,   0.061643160879611969,  -0.052868779748678207,   0.180969312787055969,  -0.072338260710239410,  -0.026329744607210159,   0.181560322642326355,   0.048927363008260727,  -0.087905533611774445,   0.089771546423435211,  -0.056827429682016373,   0.182437956333160400,   0.010924120433628559,  -0.087300918996334076,   0.000135023161419667,  -0.128888025879859924,  -0.055413272231817245,  -0.071924768388271332,   0.114114493131637573,   0.116965718567371368,   0.097069941461086273,
		  -0.009732894599437714,   0.160289391875267029,   0.077447414398193359,   0.065144442021846771,  -0.087207064032554626,  -0.020310722291469574,  -0.093331880867481232,  -0.023581877350807190,  -0.009305795654654503,   0.125962555408477783,   0.070557691156864166,   0.027500947937369347,  -0.050309889018535614,   0.084388293325901031,   0.165507361292839050,  -0.105032473802566528,   0.015559711493551731,  -0.075339101254940033,   0.122047081589698792,   0.149620413780212402,  -0.097561575472354889,   0.064893640577793121,   0.109719045460224152,  -0.045779179781675339,   0.032978661358356476,   0.165981888771057129,   0.021163213998079300,  -0.011358038522303104,  -0.089674174785614014,   0.085921131074428558,  -0.058148942887783051,  -0.008086361922323704,   0.107352323830127716,   0.067545324563980103,   0.190349414944648743,   0.074882753193378448,   0.029761962592601776,  -0.106583036482334137,  -0.100721977651119232,   0.042711406946182251,   0.029405497014522552,   0.018949462100863457,   0.202353268861770630,   0.042961210012435913,  -0.141481205821037292,  -0.129819959402084351,  -0.035826243460178375,  -0.023135930299758911,
		   0.089134074747562408,   0.045334435999393463,  -0.103192038834095001,   0.107585147023200989,  -0.061561003327369690,   0.122935339808464050,  -0.047423377633094788,   0.126667723059654236,   0.182808563113212585,   0.059725619852542877,   0.076026007533073425,   0.022463226690888405,   0.078646771609783173,  -0.082183450460433960,   0.015275269746780396,  -0.047534365206956863,   0.065695643424987793,   0.128177687525749207,  -0.062552936375141144,   0.052747838199138641,   0.149889945983886719,   0.112419918179512024,  -0.036379873752593994,   0.015373573638498783,   0.062624804675579071,   0.164480209350585938,  -0.041569951921701431,  -0.067116379737854004,  -0.095484398305416107,   0.105228230357170105,  -0.063617311418056488,   0.000723772740457207,   0.112216979265213013,   0.120209552347660065,   0.086531378328800201,   0.170335710048675537,   0.004944547079503536,  -0.113794915378093719,  -0.018041074275970459,   0.116537563502788544,   0.139679327607154846,   0.119953684508800507,   0.179563611745834351,   0.128804281353950500,  -0.074578322470188141,  -0.135858625173568726,   0.005639062728732824,   0.074494093656539917,
